{
    "layerCount": 4,
    "activationFunctions": [
        1,
        1,
        3
    ],
    "layers": [
        {
            "neuronCount": 6,
            "neurons": [
                {
                    "bias": -0.237021
                },
                {
                    "bias": -0.212309
                },
                {
                    "bias": -0.070855
                },
                {
                    "bias": 0.135167
                },
                {
                    "bias": 0.145522
                },
                {
                    "bias": 0.186273
                }
            ]
        },
        {
            "neuronCount": 64,
            "neurons": [
                {
                    "incomingWeights": [-0.091310, 0.076848, -0.106111, -0.114439, -0.461392, 0.003850],
                    "bias": 0.270387
                },
                {
                    "incomingWeights": [0.159630, 0.001370, -0.147887, 0.350930, -0.036132, 0.083641],
                    "bias": -0.087185
                },
                {
                    "incomingWeights": [-0.241435, 0.053902, 0.033129, -0.048789, -0.027764, -0.267060],
                    "bias": 0.097135
                },
                {
                    "incomingWeights": [-0.218702, -0.176058, -0.188241, -0.163955, -0.197389, -0.168766],
                    "bias": -0.235325
                },
                {
                    "incomingWeights": [-0.092269, -0.070437, -0.068355, 0.084386, -0.378258, -0.153359],
                    "bias": -0.045137
                },
                {
                    "incomingWeights": [0.140954, -0.041490, -0.151815, -0.020900, -0.475452, -0.102680],
                    "bias": 0.134130
                },
                {
                    "incomingWeights": [-0.059468, 0.207610, -0.032751, 0.182986, -0.275536, 0.254823],
                    "bias": -0.050476
                },
                {
                    "incomingWeights": [0.122849, 0.037230, 0.290911, 0.318288, 0.224840, -0.050622],
                    "bias": -0.050387
                },
                {
                    "incomingWeights": [-0.175798, -0.010792, 0.080202, -0.221040, 0.002872, -0.393996],
                    "bias": -0.245960
                },
                {
                    "incomingWeights": [-0.135133, -0.177462, 0.129436, -0.265830, -0.013226, -0.117957],
                    "bias": -0.149400
                },
                {
                    "incomingWeights": [-0.182906, -0.030357, -0.277704, -0.372243, 0.119547, -0.152301],
                    "bias": 0.096744
                },
                {
                    "incomingWeights": [-0.179057, 0.044041, -0.284690, 0.147160, -0.340912, 0.039035],
                    "bias": -0.037598
                },
                {
                    "incomingWeights": [-0.217523, 0.008979, 0.006846, -0.295733, 0.036400, -0.431189],
                    "bias": 0.236260
                },
                {
                    "incomingWeights": [0.130558, -0.230447, 0.231752, -0.188168, -0.069207, -0.124541],
                    "bias": 0.147902
                },
                {
                    "incomingWeights": [0.166405, 0.077337, 0.162576, -0.053084, 0.288874, -0.011764],
                    "bias": 0.102644
                },
                {
                    "incomingWeights": [0.096197, 0.004824, 0.298550, -0.197291, 0.266584, -0.286752],
                    "bias": -0.136443
                },
                {
                    "incomingWeights": [0.112135, 0.066141, -0.152264, -0.099628, 0.234629, -0.060578],
                    "bias": 0.401398
                },
                {
                    "incomingWeights": [-0.047845, 0.052347, 0.011717, -0.144737, -0.086003, -0.419192],
                    "bias": 0.150322
                },
                {
                    "incomingWeights": [-0.033737, 0.040348, 0.250101, -0.138907, 0.207646, -0.147311],
                    "bias": -0.017528
                },
                {
                    "incomingWeights": [-0.094534, -0.032618, 0.192545, -0.001059, 0.173731, -0.227843],
                    "bias": 0.205955
                },
                {
                    "incomingWeights": [0.161357, 0.003941, 0.332896, 0.017267, 0.031307, 0.257717],
                    "bias": 0.100376
                },
                {
                    "incomingWeights": [0.102888, 0.206655, 0.141079, 0.145551, 0.185768, 0.294547],
                    "bias": 0.240443
                },
                {
                    "incomingWeights": [0.213143, -0.077897, 0.377093, 0.203227, 0.154067, 0.098080],
                    "bias": 0.106654
                },
                {
                    "incomingWeights": [0.054940, -0.159491, 0.159315, -0.165027, -0.052651, -0.272648],
                    "bias": -0.106651
                },
                {
                    "incomingWeights": [0.070197, 0.019883, -0.011652, 0.168349, -0.272851, 0.381700],
                    "bias": 0.127992
                },
                {
                    "incomingWeights": [0.091888, -0.048040, -0.182885, -0.012976, 0.131266, -0.198909],
                    "bias": -0.193725
                },
                {
                    "incomingWeights": [0.064146, -0.192411, 0.366427, 0.055919, 0.016383, -0.067863],
                    "bias": 0.035741
                },
                {
                    "incomingWeights": [0.087329, -0.096444, 0.065886, -0.129794, 0.080493, 0.010812],
                    "bias": 0.057886
                },
                {
                    "incomingWeights": [0.031933, -0.143089, -0.029890, -0.272075, 0.140699, -0.141836],
                    "bias": 0.358062
                },
                {
                    "incomingWeights": [0.263957, -0.031899, 0.007583, 0.038146, 0.136147, 0.259013],
                    "bias": -0.205359
                },
                {
                    "incomingWeights": [0.066778, 0.020294, 0.041462, 0.370752, -0.168669, 0.192818],
                    "bias": -0.043489
                },
                {
                    "incomingWeights": [0.039634, 0.019208, -0.108035, -0.102797, -0.219210, -0.275832],
                    "bias": -0.206126
                },
                {
                    "incomingWeights": [-0.176583, 0.001473, 0.156743, -0.003279, 0.198965, 0.068195],
                    "bias": 0.002342
                },
                {
                    "incomingWeights": [0.070866, 0.098076, 0.009221, -0.178559, 0.396581, -0.476548],
                    "bias": -0.073568
                },
                {
                    "incomingWeights": [-0.073819, -0.064220, -0.073105, -0.099104, -0.406660, -0.037834],
                    "bias": 0.044475
                },
                {
                    "incomingWeights": [0.226565, 0.079469, 0.063032, 0.316456, 0.233120, 0.099955],
                    "bias": -0.328988
                },
                {
                    "incomingWeights": [0.034427, -0.155667, -0.294861, 0.158555, -0.440743, 0.095774],
                    "bias": -0.155179
                },
                {
                    "incomingWeights": [0.053486, -0.104428, 0.102029, -0.149778, 0.122527, -0.201192],
                    "bias": 0.205052
                },
                {
                    "incomingWeights": [0.073774, 0.250898, -0.000556, -0.074824, -0.266748, -0.097367],
                    "bias": 0.150619
                },
                {
                    "incomingWeights": [-0.004718, 0.112481, 0.095221, 0.352150, 0.057054, 0.209001],
                    "bias": -0.058711
                },
                {
                    "incomingWeights": [0.083194, 0.211114, 0.302169, -0.086390, 0.065167, -0.314271],
                    "bias": -0.083983
                },
                {
                    "incomingWeights": [-0.002225, 0.046157, -0.200177, 0.143571, 0.105285, 0.247671],
                    "bias": -0.350649
                },
                {
                    "incomingWeights": [0.052314, 0.227475, -0.306617, -0.234591, -0.080758, -0.202237],
                    "bias": -0.055894
                },
                {
                    "incomingWeights": [-0.276148, -0.131236, 0.240820, 0.117195, 0.200582, -0.300163],
                    "bias": -0.018152
                },
                {
                    "incomingWeights": [0.010866, -0.011289, 0.111391, 0.217174, 0.166161, 0.458240],
                    "bias": -0.014685
                },
                {
                    "incomingWeights": [0.041762, -0.070804, 0.014179, 0.286747, 0.054455, 0.474601],
                    "bias": 0.174460
                },
                {
                    "incomingWeights": [-0.050440, -0.109595, -0.027557, 0.070858, -0.056417, 0.209924],
                    "bias": -0.026085
                },
                {
                    "incomingWeights": [0.007244, 0.024103, 0.480401, -0.137571, -0.082402, 0.109022],
                    "bias": -0.400866
                },
                {
                    "incomingWeights": [-0.201065, -0.143349, 0.131844, 0.004790, 0.245559, 0.014942],
                    "bias": -0.112737
                },
                {
                    "incomingWeights": [0.143198, 0.068572, -0.099556, -0.104982, -0.032603, -0.309031],
                    "bias": 0.163716
                },
                {
                    "incomingWeights": [-0.001963, 0.248218, 0.349772, 0.205589, 0.098535, -0.180788],
                    "bias": 0.202090
                },
                {
                    "incomingWeights": [-0.204411, -0.019830, -0.235284, -0.133345, 0.093426, 0.050162],
                    "bias": 0.173576
                },
                {
                    "incomingWeights": [-0.271237, -0.166905, 0.056406, 0.112844, 0.250902, 0.023971],
                    "bias": -0.298636
                },
                {
                    "incomingWeights": [0.076466, -0.096558, 0.146828, 0.390610, -0.049943, 0.297338],
                    "bias": -0.222435
                },
                {
                    "incomingWeights": [0.024033, -0.035984, -0.133618, -0.150145, -0.267051, -0.338856],
                    "bias": -0.091208
                },
                {
                    "incomingWeights": [-0.037703, 0.038709, -0.224154, 0.199565, -0.022768, 0.374142],
                    "bias": -0.064074
                },
                {
                    "incomingWeights": [0.033530, -0.088481, 0.142480, 0.023283, 0.094611, 0.245058],
                    "bias": 0.066956
                },
                {
                    "incomingWeights": [-0.230806, -0.023576, -0.141140, 0.246905, 0.128767, 0.062575],
                    "bias": 0.335079
                },
                {
                    "incomingWeights": [-0.058228, 0.175295, 0.390305, -0.025475, 0.061167, -0.117788],
                    "bias": -0.237666
                },
                {
                    "incomingWeights": [-0.025831, 0.081741, -0.088509, -0.203708, -0.021897, -0.260346],
                    "bias": -0.058049
                },
                {
                    "incomingWeights": [0.030696, 0.067673, 0.053161, 0.113235, 0.080320, 0.229652],
                    "bias": 0.186587
                },
                {
                    "incomingWeights": [-0.000858, -0.062919, 0.305494, -0.189270, 0.160601, -0.370304],
                    "bias": -0.095282
                },
                {
                    "incomingWeights": [0.171543, -0.069310, 0.206827, 0.094684, -0.166747, -0.174120],
                    "bias": 0.015452
                },
                {
                    "incomingWeights": [0.036213, 0.145184, -0.172306, 0.034020, -0.223537, 0.218723],
                    "bias": -0.060515
                }
            ]
        },
        {
            "neuronCount": 64,
            "neurons": [
                {
                    "incomingWeights": [-0.196390, -0.220923, -0.031463, -0.116458, 0.247644, 0.107633, -0.066392, -0.020304, 0.186867, -0.159730, 0.274881, 0.087616, 0.030011, 0.049046, 0.294398, 0.208316, -0.130548, -0.065599, 0.124412, -0.193207, -0.026700, 0.254187, 0.331148, -0.408058, 0.086796, -0.175825, -0.037368, -0.018329, -0.178581, -0.052541, 0.097296, -0.487134, -0.160649, 0.314221, 0.240683, 0.001980, 0.314885, -0.152023, -0.342243, -0.115722, -0.273631, -0.315392, 0.118145, 0.299727, 0.125201, 0.031470, -0.051412, -0.106540, 0.349556, 0.069789, 0.093086, 0.182318, -0.110427, 0.085186, -0.004642, 0.182609, 0.052788, 0.230886, 0.468871, 0.335129, 0.247058, -0.013842, 0.200118, -0.015235],
                    "bias": -0.237272
                },
                {
                    "incomingWeights": [-0.197363, 0.189169, 0.101519, -0.019440, -0.160141, 0.256867, 0.014296, -0.211688, 0.160312, -0.072293, 0.272292, -0.050222, -0.205981, 0.155270, -0.026520, -0.079621, -0.152316, 0.267152, 0.128115, -0.012112, 0.267092, 0.090106, -0.013786, 0.143089, 0.231380, -0.058820, 0.186822, 0.158627, 0.182396, -0.030552, 0.126567, 0.187565, 0.165420, -0.243195, 0.076305, -0.026046, 0.023564, -0.174730, -0.121218, 0.042833, -0.028079, 0.077138, 0.087830, 0.274386, 0.201266, 0.079283, 0.120261, 0.173682, -0.243112, 0.090304, -0.191831, 0.223604, -0.075109, -0.221097, 0.358277, -0.119603, -0.049823, 0.292373, 0.323900, 0.330031, -0.158339, -0.082034, -0.156270, -0.157606],
                    "bias": -0.097897
                },
                {
                    "incomingWeights": [-0.096077, -0.099506, 0.258773, 0.224784, -0.146677, -0.083662, -0.141740, -0.032521, 0.198610, 0.056961, -0.076769, 0.008955, 0.009385, 0.203800, -0.134216, 0.190632, -0.178895, 0.047850, -0.017388, 0.028906, 0.158737, 0.306788, -0.044159, -0.032071, -0.036372, -0.150214, 0.093377, 0.099993, -0.156365, -0.000834, 0.012224, -0.035571, 0.186869, 0.102246, 0.204572, 0.154823, 0.222613, 0.030807, -0.037508, -0.165296, 0.046599, 0.269752, 0.027356, 0.144363, -0.179108, -0.143716, -0.008244, -0.092167, -0.250264, 0.036016, -0.071423, 0.160933, 0.213531, 0.045511, 0.072704, 0.242725, 0.133161, -0.091308, 0.087071, 0.023625, 0.226334, 0.196590, 0.228473, -0.072289],
                    "bias": 0.208718
                },
                {
                    "incomingWeights": [-0.953154, -0.458628, -0.384808, -0.360195, -0.494052, -0.419921, -0.549804, 0.305510, 0.234251, 0.281336, 0.028577, -0.118945, -0.221394, 0.357009, -0.015915, 0.142751, -0.335014, 0.245600, -0.051285, -0.021423, 0.302606, 0.242280, 0.089293, -0.210579, 0.137356, 0.224065, 0.135651, -0.159755, -0.090606, -0.037921, 0.077415, -0.391224, -0.233525, -0.124451, -0.308588, 0.028360, -0.507887, -0.060207, -0.195122, -0.353519, -0.007173, -0.300774, -0.119167, -0.210746, -0.177341, -0.182416, -0.132171, 0.416466, 0.120362, -0.038753, -0.073837, -0.210624, 0.053144, 0.009010, -0.420927, 0.012992, 0.066773, -0.887823, 0.342438, 0.523002, -0.097267, 0.331929, 0.380429, -0.156620],
                    "bias": -0.326192
                },
                {
                    "incomingWeights": [0.018736, 0.201927, 0.221486, -0.103803, -0.118197, -0.221635, 0.056727, -0.125968, -0.064356, -0.116546, -0.075050, -0.112022, 0.106765, 0.032940, 0.189309, -0.034984, -0.199131, -0.019054, 0.125431, -0.144730, 0.295008, -0.108954, -0.094512, -0.192291, 0.228361, 0.142998, -0.277940, -0.091098, -0.164982, -0.450688, -0.182555, 0.298435, -0.158819, 0.062616, -0.123598, 0.004204, -0.143385, 0.341828, 0.014895, 0.056119, 0.212041, -0.299590, -0.040802, -0.171187, -0.167100, -0.286974, -0.245676, 0.024403, -0.046327, 0.066478, 0.211608, -0.075209, -0.484645, 0.382807, 0.033515, 0.223672, 0.229057, 0.026665, -0.397549, 0.041048, -0.260987, -0.020828, 0.307814, -0.335302],
                    "bias": 0.154644
                },
                {
                    "incomingWeights": [0.025173, -0.134610, 0.317312, 0.273114, 0.057073, 0.211367, -0.090740, -0.258687, 0.209197, 0.213451, 0.107211, 0.209869, 0.047088, 0.242627, -0.147684, 0.143212, 0.179942, 0.241750, 0.118825, 0.235408, -0.003988, -0.072046, 0.147459, -0.177458, -0.127844, -0.073083, 0.095933, 0.005981, 0.150435, -0.005779, 0.096761, 0.049811, -0.159134, -0.256616, -0.159373, -0.021177, -0.239110, 0.001846, -0.126071, 0.172856, -0.114453, -0.195231, 0.343653, 0.003454, 0.247122, 0.179494, 0.041165, -0.061200, 0.103259, 0.150946, -0.058920, 0.196232, -0.058411, 0.161769, -0.255493, -0.032206, -0.198106, -0.034440, -0.102747, 0.074764, 0.130502, -0.176984, 0.248631, -0.083685],
                    "bias": -0.117849
                },
                {
                    "incomingWeights": [0.004586, 0.327469, 0.169612, -0.548653, -0.362825, -0.140239, -0.319936, -0.095749, -0.084123, -0.019706, -0.241676, -0.197500, -0.007382, -0.024434, 0.106964, 0.083359, 0.154452, 0.292729, 0.312056, -0.201294, 0.063315, 0.009525, -0.395264, -0.182081, -0.274311, 0.030069, -0.072423, 0.077790, -0.142284, -0.699699, -0.076766, -0.005615, -0.399174, -0.187757, 0.060648, 0.304523, 0.065167, -0.048728, -0.090587, 0.149305, 0.040294, -0.109261, -0.240966, -0.224746, -0.035710, -0.580313, 0.332629, -0.010568, -0.739893, -0.142594, 0.198639, 0.158746, -0.119975, -0.010407, 0.176568, -0.203447, -0.429522, 0.101896, 0.283089, -0.410662, -0.342272, 0.160005, 0.053137, 0.088115],
                    "bias": 0.063583
                },
                {
                    "incomingWeights": [-0.219417, 0.256449, -0.091756, 0.161760, 0.204979, -0.220771, 0.101911, -0.433359, -0.146141, -0.265523, -0.208546, -0.380594, 0.063621, -0.332256, -0.479598, 0.000394, -0.220723, -0.036585, 0.275638, -0.174208, -0.095794, -0.295716, -0.154846, 0.229015, -0.320169, 0.228885, 0.002589, -0.164969, -0.225283, 0.204525, -0.023059, -0.099369, 0.019008, -0.021615, 0.051803, -0.035189, 0.273950, 0.013980, -0.340868, -0.313587, 0.244541, 0.240295, 0.024461, 0.167635, -0.279036, -0.012820, -0.083961, 0.236285, -0.169096, -0.189576, -0.002399, -0.238899, -0.019945, 0.102058, 0.007646, -0.387900, -0.109937, -0.025867, -0.010986, -0.074812, 0.145017, -0.147607, 0.050579, -0.161801],
                    "bias": 0.020233
                },
                {
                    "incomingWeights": [-0.118326, -0.402648, 0.099549, -0.239138, 0.004487, 0.031244, -0.381585, -0.199382, -0.122696, 0.305283, 0.262184, 0.060491, -0.060611, 0.233412, -0.207601, 0.187300, -0.071721, 0.006971, 0.207366, -0.149187, -0.045282, 0.240276, 0.227047, -0.294951, -0.250562, 0.303596, 0.268598, -0.002198, -0.076435, -0.025394, 0.105828, -0.435673, -0.078276, -0.093643, 0.005196, -0.132456, -0.571554, -0.327638, 0.038346, -0.057968, -0.016541, 0.185904, -0.117021, -0.285317, -0.280232, -0.108595, 0.171857, 0.045187, -0.062110, -0.174389, 0.026261, -0.111606, 0.026685, 0.006095, 0.114579, 0.259856, 0.137693, -0.124030, 0.178563, 0.134404, 0.253605, -0.209584, 0.090466, -0.077472],
                    "bias": -0.218861
                },
                {
                    "incomingWeights": [-0.504624, 0.238505, 0.149385, -0.045160, -0.216444, 0.080435, -0.538750, 0.289092, 0.217620, -0.101890, 0.099664, 0.147551, 0.290549, 0.133459, 0.080684, 0.331542, 0.209941, -0.060525, -0.004893, -0.020719, -0.240041, -0.215984, 0.026412, -0.145955, -0.290584, 0.100916, 0.156179, 0.097965, -0.158465, 0.239870, -0.172316, -0.100356, -0.257451, -0.031474, -0.397899, -0.028091, 0.092403, -0.140184, -0.280839, -0.204860, -0.134890, 0.521377, 0.007909, 0.127190, -0.095949, 0.000389, -0.066774, 0.001197, -0.163081, 0.195212, 0.247963, -0.189820, -0.096384, -0.026753, -0.254478, 0.364090, -0.074685, -0.250590, 0.317003, 0.250906, 0.050156, -0.162029, 0.045603, 0.099768],
                    "bias": 0.101128
                },
                {
                    "incomingWeights": [0.039426, -0.063185, -0.282425, 0.001434, 0.103642, 0.013274, 0.060225, 0.108948, -0.123722, -0.116697, 0.081087, 0.325978, -0.292216, 0.065169, -0.195903, 0.030358, -0.072645, 0.141270, 0.034405, 0.170822, 0.166195, 0.026858, -0.364953, -0.159768, 0.055596, 0.035196, 0.084015, 0.032866, 0.109326, -0.018263, -0.002226, -0.181910, 0.124857, 0.177531, 0.006522, -0.151896, -0.071075, 0.137150, -0.150396, -0.147537, -0.182408, 0.295978, 0.287202, 0.117128, 0.139927, 0.057496, 0.155262, 0.270895, -0.205731, -0.193771, 0.040791, -0.018176, 0.242209, 0.058299, -0.028997, 0.079770, 0.132748, -0.210838, 0.071614, 0.075712, 0.134231, -0.237787, 0.278605, -0.035063],
                    "bias": -0.152600
                },
                {
                    "incomingWeights": [-0.064224, -0.070564, -0.213612, -0.061344, -0.107128, 0.188052, 0.045053, -0.032419, 0.276943, -0.094011, -0.200348, 0.040967, 0.201545, 0.138772, 0.229817, 0.119194, -0.200195, 0.211367, 0.100197, 0.319709, -0.223962, 0.202090, -0.026054, -0.230472, -0.118081, 0.043242, -0.144559, -0.062536, -0.007399, -0.072460, -0.002707, -0.117697, 0.143630, 0.244020, -0.326341, -0.085500, -0.122322, 0.114113, 0.094282, 0.141114, -0.393308, -0.173741, 0.202783, 0.239956, 0.109049, 0.308358, 0.399867, 0.093775, -0.108839, 0.135179, -0.037649, 0.199379, 0.041347, 0.194209, -0.201261, 0.248074, -0.055086, -0.117036, -0.118716, 0.383913, 0.146966, -0.012942, -0.021306, -0.084507],
                    "bias": -0.237480
                },
                {
                    "incomingWeights": [-0.057082, -0.012014, -0.252991, -0.005905, 0.011915, -0.066431, 0.161763, 0.290098, 0.244990, 0.289181, 0.092711, -0.092877, 0.033209, 0.044182, 0.213464, -0.069210, -0.057535, -0.858399, 0.388605, -0.229060, -0.131848, -0.098219, 0.243886, 0.145579, 0.042811, 0.131962, 0.242861, 0.223977, -0.178595, 0.392035, 0.199072, -0.374597, -0.025281, -0.108530, -0.169907, 0.110346, 0.044340, 0.052440, -0.217230, 0.155017, 0.030793, -0.215498, -0.004384, 0.208975, 0.184619, 0.275664, -0.134225, 0.189756, 0.449672, -0.162861, 0.172003, 0.076077, 0.393465, 0.097486, -0.031729, -0.041874, 0.021297, -0.118889, 0.085257, -0.271713, 0.085661, -0.496885, -0.425282, 0.223400],
                    "bias": 0.172635
                },
                {
                    "incomingWeights": [-0.208433, 0.105260, 0.239753, 0.277236, 0.057710, -0.478415, 0.047974, -0.093339, -0.128608, -0.126759, -0.060324, -0.116742, 0.237606, -0.234101, 0.172165, 0.265572, 0.189808, 0.316716, 0.095595, -0.157735, -0.058739, -0.129696, 0.260375, -0.066349, -0.262457, -0.199936, -0.258779, 0.033529, 0.077188, -0.153020, -0.084614, 0.306402, 0.222114, 0.120491, -0.104141, -0.037398, -0.071568, 0.262050, -0.221857, -0.140562, -0.078332, 0.241355, -0.217531, 0.148633, 0.018413, -0.299628, -0.100820, -0.403317, -0.079395, 0.251289, 0.036734, -0.371552, 0.040677, -0.087112, -0.273658, 0.102506, 0.089827, -0.217949, 0.153781, -0.214708, 0.057110, -0.085385, 0.242180, 0.238597],
                    "bias": 0.281588
                },
                {
                    "incomingWeights": [0.067210, -0.153859, 0.028715, -0.211588, 0.187403, -0.068430, -0.081210, 0.087163, -0.085143, 0.101512, -0.246865, 0.151562, -0.019711, 0.278178, 0.343551, 0.103997, 0.202170, -0.179944, 0.078882, -0.214982, -0.155744, -0.058472, -0.089838, 0.203851, 0.200993, -0.097405, -0.275499, -0.016035, 0.346312, 0.083653, -0.011362, -0.075054, 0.076180, -0.069548, 0.244750, 0.002130, 0.211939, 0.162056, 0.349781, 0.247466, 0.293648, 0.171996, 0.034194, -0.188252, -0.113095, -0.008801, 0.207572, 0.064574, -0.180876, 0.277863, -0.097304, 0.102140, -0.223268, 0.001560, 0.088812, -0.037904, 0.030897, 0.057469, -0.310451, -0.133236, 0.131581, -0.006080, -0.153872, -0.228009],
                    "bias": -0.117312
                },
                {
                    "incomingWeights": [-0.147674, 0.112363, -0.277246, 0.015289, -0.233096, 0.153275, 0.056665, -0.026559, 0.162444, 0.003602, -0.129535, -0.250867, 0.216320, -0.046967, 0.114203, -0.354691, -0.251722, -0.125396, -0.289166, 0.256775, -0.152101, 0.086013, -0.103916, -0.099944, 0.307829, 0.266658, -0.001913, -0.078024, 0.099261, -0.047966, -0.111247, -0.030290, -0.003523, 0.224897, 0.049369, -0.237001, 0.160696, 0.239049, 0.145892, 0.113023, -0.127623, 0.221646, 0.084416, -0.030106, 0.061092, 0.110396, 0.202548, 0.313126, 0.121267, 0.216928, -0.010760, -0.148084, 0.099044, 0.052098, 0.194415, 0.155494, -0.145817, 0.120083, -0.161845, 0.002380, 0.128183, 0.118354, -0.132078, 0.005727],
                    "bias": 0.084667
                },
                {
                    "incomingWeights": [-0.363616, 0.212360, 0.042505, -0.094085, 0.064991, -0.403968, -0.226998, 0.233951, -0.166298, -0.103340, -0.242144, -0.162472, 0.061334, 0.217755, 0.057974, 0.267681, -0.167450, 0.108649, -0.081068, -0.034453, 0.105695, -0.121279, 0.089600, -0.253698, -0.003801, 0.347972, 0.014081, -0.084021, 0.129999, 0.005663, -0.251424, -0.268826, -0.114243, -0.040576, -0.206532, -0.163064, 0.264977, 0.012933, -0.144252, 0.336504, -0.055736, 0.043278, 0.056431, -0.139716, -0.080042, -0.000709, 0.075465, 0.158906, -0.010205, 0.151709, 0.061146, 0.146515, 0.212855, -0.162641, 0.187001, -0.092970, -0.229858, 0.028049, 0.088221, -0.051990, 0.332412, 0.153287, 0.000731, 0.148375],
                    "bias": -0.199866
                },
                {
                    "incomingWeights": [0.279999, -0.311594, 0.066467, -0.050720, 0.155235, 0.069294, -0.256918, -0.127570, 0.031026, 0.102731, 0.030264, 0.215382, -0.299123, 0.055542, -0.048767, 0.062559, -0.033420, -0.053154, 0.003211, -0.009755, -0.240644, 0.261457, 0.225134, 0.127562, -0.128490, 0.106454, 0.230096, -0.278816, 0.128450, 0.289018, 0.054793, -0.028759, 0.075406, -0.041105, 0.146436, -0.204292, 0.169716, 0.003988, -0.260323, -0.012968, -0.025756, 0.006571, 0.084602, -0.027429, 0.153078, 0.060399, -0.139848, -0.096818, 0.277047, 0.149735, 0.197843, 0.077307, 0.286873, -0.155143, -0.215448, 0.216067, 0.167905, -0.214529, -0.142467, 0.091289, 0.166439, 0.061606, 0.046858, -0.109535],
                    "bias": 0.208542
                },
                {
                    "incomingWeights": [0.224176, 0.321021, 0.110096, -0.044046, -0.199458, -0.042270, -0.062876, -0.082798, -0.300485, -0.214950, 0.322605, -0.285851, 0.074442, -0.196345, 0.078887, -0.067515, -0.152457, 0.097798, -0.226953, 0.189361, -0.081374, 0.028629, 0.165143, 0.250708, 0.150016, -0.082515, 0.110102, -0.139753, -0.145876, 0.060921, -0.199849, 0.292365, 0.260622, 0.222795, 0.112911, 0.020551, 0.334551, 0.086883, 0.083653, 0.163310, 0.446218, 0.446436, 0.288045, 0.307512, 0.115877, 0.250709, -0.032344, 0.183105, 0.257357, 0.322501, 0.192387, 0.080087, 0.222387, 0.095138, -0.306424, -0.334138, 0.192539, -0.151268, -0.024124, -0.413692, -0.098191, 0.305499, 0.017188, -0.250605],
                    "bias": -0.122954
                },
                {
                    "incomingWeights": [-0.194155, -0.139289, 0.101197, 0.026025, 0.331885, 0.172305, 0.093930, -0.115584, -0.714243, 0.374071, -0.114120, -0.151431, -0.394408, -0.337054, -0.188360, -0.707523, 0.202248, 0.208481, -0.353202, -0.341518, 0.173349, 0.047465, 0.376294, -0.247118, 0.160763, 0.106248, 0.269334, -0.210458, -0.016969, -0.158393, 0.221880, -0.012593, 0.059470, -0.705680, -0.023168, 0.228953, -0.100525, -0.384756, 0.082553, 0.216245, -0.047958, 0.398653, -0.067424, 0.020946, -0.149610, -0.128719, -0.014857, 0.261988, -0.188841, -0.109692, -0.345431, 0.121091, -0.249012, 0.050733, 0.237921, 0.291020, 0.045665, -0.017973, -0.631102, 0.084564, 0.265547, -0.314969, 0.135934, -0.342440],
                    "bias": -0.077609
                },
                {
                    "incomingWeights": [0.276359, -0.083754, 0.200794, 0.008437, 0.104617, 0.064094, -0.269525, -0.047232, -0.199491, -0.224045, -0.144289, -0.059150, -0.075685, 0.211462, -0.085612, 0.109452, -0.177395, 0.275070, -0.121308, -0.037082, 0.121053, -0.232560, 0.368189, 0.009655, 0.257363, 0.231146, 0.092931, 0.252340, 0.121796, -0.254898, 0.036517, 0.247820, -0.058572, 0.035186, 0.055374, 0.156154, -0.153594, 0.191496, 0.391510, 0.340166, 0.137761, 0.315376, 0.071318, -0.154763, -0.042144, -0.121200, 0.188820, 0.365781, 0.102256, -0.303647, 0.052851, 0.191517, -0.319764, -0.110323, 0.095730, 0.018414, 0.079725, 0.192071, -0.211410, 0.237708, 0.164726, 0.028926, -0.171154, 0.105098],
                    "bias": 0.178794
                },
                {
                    "incomingWeights": [0.211144, 0.090127, -0.115621, -0.174181, 0.330662, 0.248622, -0.290164, 0.317167, -0.305618, -0.013860, -0.158851, -0.226575, -0.164251, -0.272108, -0.151168, -0.631864, -0.261315, 0.197323, -0.150667, 0.010948, -0.114168, 0.348365, -0.085757, -0.205466, 0.093792, -0.198953, -0.149075, 0.119158, 0.273175, 0.235660, -0.217517, 0.146571, 0.067448, -0.454274, 0.140497, 0.210280, -0.099882, -0.204043, 0.035253, -0.041090, 0.023776, 0.131096, 0.147820, -0.066704, 0.188400, 0.100394, -0.015070, 0.181779, 0.029841, 0.002083, -0.198912, 0.058230, 0.340838, 0.189794, 0.075991, 0.008160, 0.270112, 0.153002, 0.223338, -0.212643, -0.077600, -0.128746, -0.301772, -0.102764],
                    "bias": -0.175648
                },
                {
                    "incomingWeights": [0.161836, -0.144382, -0.145831, 0.281149, 0.245967, -0.168515, 0.220751, -0.211648, 0.001096, -0.089217, -0.184928, 0.005093, -0.212630, 0.301620, 0.077397, -0.051622, 0.310909, 0.206990, -0.025028, -0.100149, 0.108200, 0.094155, -0.099239, 0.263034, 0.162704, 0.098916, -0.161474, 0.124765, -0.006987, -0.092650, -0.109823, 0.150800, 0.062507, 0.129509, 0.087973, 0.143909, 0.143687, 0.152477, -0.098970, 0.121153, 0.041262, 0.155504, 0.196642, 0.194118, -0.134839, -0.003625, 0.075035, 0.259539, -0.099140, -0.161478, -0.123340, 0.113927, 0.172589, 0.055700, 0.047189, 0.022911, -0.077122, -0.082648, 0.195420, 0.103216, -0.035688, -0.104567, -0.030433, -0.103459],
                    "bias": -0.075592
                },
                {
                    "incomingWeights": [0.069003, 0.033007, 0.205972, 0.030514, 0.141581, -0.181098, 0.291294, -0.284036, 0.011513, -0.163470, 0.157001, -0.021062, 0.209579, -0.059348, 0.106767, 0.084499, 0.270192, -0.215759, 0.226028, -0.151319, -0.206193, 0.097565, 0.232524, 0.270473, 0.258059, 0.124774, -0.085585, -0.118083, 0.248764, -0.135918, -0.058008, 0.271838, -0.049523, 0.177393, 0.225785, -0.191171, 0.000643, 0.231121, 0.132590, 0.047916, -0.167678, 0.041292, -0.129793, -0.253371, 0.229635, 0.026116, -0.101963, 0.058803, 0.048396, -0.149619, -0.062297, 0.055942, -0.152106, 0.034735, 0.365550, -0.254401, -0.009899, -0.002783, 0.209420, 0.275826, -0.276985, -0.170706, -0.093563, 0.183750],
                    "bias": 0.275365
                },
                {
                    "incomingWeights": [0.284584, -0.174981, 0.164074, -0.303784, 0.005485, 0.071408, 0.257322, 0.088199, -0.080646, 0.067221, -0.017830, -0.279453, 0.168914, 0.111153, 0.065646, -0.006896, -0.185107, 0.258500, 0.264007, 0.263523, 0.406646, -0.214047, 0.230782, 0.048700, 0.238063, 0.311519, -0.060528, 0.050793, -0.201862, 0.016790, -0.164630, -0.197959, 0.001406, 0.107613, -0.010580, -0.254322, 0.295305, -0.209072, -0.072139, 0.270158, 0.154994, -0.128275, 0.196305, -0.225523, -0.296047, -0.335012, 0.246456, 0.284479, 0.300528, 0.068198, -0.234569, -0.047409, 0.272137, 0.117061, 0.201407, 0.289268, 0.080506, 0.031554, 0.179937, -0.183178, -0.055484, -0.227389, -0.025105, -0.352826],
                    "bias": 0.101068
                },
                {
                    "incomingWeights": [0.121352, -0.121297, -0.146253, -0.144959, 0.080857, -0.003598, 0.044751, 0.292691, 0.111718, 0.257571, -0.024508, 0.107936, 0.098971, -0.068473, 0.180303, -0.100264, -0.020640, -0.028049, -0.189863, 0.055641, 0.000968, 0.113573, -0.036534, 0.098816, -0.027074, 0.158035, -0.244515, 0.231119, 0.218415, 0.214681, 0.034507, -0.110658, 0.260250, -0.130790, 0.044849, -0.215401, 0.167189, 0.154421, 0.206687, 0.092685, 0.197557, 0.039582, -0.218233, -0.176505, 0.095348, -0.111871, -0.133139, 0.136239, -0.045010, 0.077148, 0.141312, 0.146313, 0.245741, -0.148724, 0.122778, -0.234539, 0.104709, 0.178249, -0.050535, 0.183327, -0.077982, -0.124485, 0.010749, 0.125139],
                    "bias": 0.132150
                },
                {
                    "incomingWeights": [-0.146938, -0.093883, -0.045479, 0.277082, -0.107975, -0.191141, -0.135410, -0.173728, 0.198302, 0.224185, -0.257867, 0.026185, 0.067732, 0.274810, 0.299129, 0.053195, 0.072022, 0.037600, 0.082894, 0.217904, -0.111849, -0.068947, 0.184561, -0.115454, 0.060732, 0.358484, -0.157967, -0.162693, -0.253000, 0.179954, -0.004836, -0.249726, 0.124557, 0.283009, -0.021724, -0.147839, -0.113414, -0.226656, 0.060937, -0.080429, -0.037561, -0.322945, -0.132650, 0.045566, -0.018831, 0.298551, -0.171738, -0.112959, -0.066544, 0.153383, 0.120760, 0.156439, -0.096015, -0.157663, -0.160086, 0.234981, -0.004389, -0.208706, -0.061317, 0.158163, 0.229936, -0.312314, 0.122099, -0.110279],
                    "bias": -0.107243
                },
                {
                    "incomingWeights": [0.266498, 0.162566, 0.000333, 0.065598, -0.071677, 0.169769, -0.110275, 0.296842, 0.182995, -0.147675, -0.026725, -0.006307, 0.231766, -0.199343, 0.203194, 0.206421, -0.152139, -0.296649, 0.318261, -0.066053, 0.131619, -0.298275, -0.081217, -0.072733, 0.079473, -0.147550, -0.187452, 0.030406, -0.227276, 0.058761, 0.088047, -0.275061, -0.192065, -0.290040, 0.075402, 0.243141, 0.095562, 0.210947, 0.017285, -0.193415, -0.439038, 0.294408, -0.124274, -0.400688, -0.183731, 0.222317, 0.113229, -0.201411, 0.153582, 0.106373, 0.044619, 0.126533, 0.118178, 0.201896, 0.136011, 0.292922, 0.146458, 0.135854, 0.123092, -0.056026, 0.244229, -0.283497, 0.152731, 0.223477],
                    "bias": -0.202746
                },
                {
                    "incomingWeights": [0.037867, -0.212852, -0.385045, 0.068711, -0.018405, -0.304960, 0.177831, 0.228288, -0.370970, -0.055559, -0.133626, -0.228485, -0.244179, -0.194350, 0.218046, -0.037826, -0.054314, 0.030012, -0.251347, -0.019595, 0.356501, 0.330236, -0.097763, 0.146212, 0.106218, -0.038384, -0.244047, 0.390171, 0.168938, -0.023282, -0.150986, 0.128747, 0.011668, -0.009621, 0.121763, 0.068746, -0.314757, 0.363394, 0.017099, -0.183764, 0.093429, 0.066989, -0.336560, 0.258661, 0.329123, 0.183890, -0.048756, 0.142532, -0.033830, 0.087856, -0.025842, -0.230147, -0.268948, 0.104381, -0.585360, -0.242081, 0.288873, 0.221526, 0.073570, -0.004607, 0.137541, 0.308724, -0.179432, 0.003216],
                    "bias": 0.083514
                },
                {
                    "incomingWeights": [-0.397860, 0.279578, -0.121008, -0.223306, -0.340901, -0.674823, 0.087312, 0.314305, 0.045628, 0.000412, -0.124251, 0.077448, -0.362806, 0.175028, -0.240703, 0.225687, -0.116645, -0.302681, -0.251601, -0.098493, -0.226209, 0.147848, 0.037538, 0.089572, -0.294377, -0.467465, 0.119113, -0.095403, 0.168449, 0.293973, -0.098958, -0.213746, -0.163620, -0.292679, -0.714519, -0.183338, -0.273572, -0.163155, -0.192234, 0.291166, 0.080236, -0.047624, 0.040427, 0.045402, -0.011731, 0.225493, -0.380284, 0.149238, -0.196144, -0.091273, 0.156531, 0.293264, -0.038280, 0.122391, -0.138681, -0.085779, 0.015017, -0.113116, 0.167167, 0.245997, -0.145148, -0.033445, -0.130393, -0.123226],
                    "bias": 0.223620
                },
                {
                    "incomingWeights": [0.245181, -0.338045, 0.294941, 0.118145, 0.061946, 0.044778, -0.019527, 0.161622, 0.078929, 0.193570, 0.121168, 0.022089, 0.262243, 0.016676, 0.127882, -0.068588, -0.045572, 0.181496, 0.146725, -0.233381, -0.218069, 0.216964, 0.216986, 0.266562, 0.254954, -0.179492, -0.183620, -0.071105, -0.324176, -0.118649, 0.054658, -0.164215, -0.280123, -0.088665, -0.210981, 0.080995, -0.213973, -0.118331, 0.121447, 0.034368, -0.344471, 0.107711, 0.085812, -0.027951, -0.413887, 0.043073, -0.022243, 0.123035, 0.167696, 0.171274, -0.247388, -0.109793, 0.365106, -0.006385, 0.312094, 0.287394, 0.234256, 0.177350, -0.020452, 0.461043, -0.075721, 0.109830, 0.389442, 0.220977],
                    "bias": -0.148140
                },
                {
                    "incomingWeights": [-0.321082, 0.285786, 0.205482, 0.171701, -0.151016, -0.184906, -0.233297, -0.401665, -0.054870, 0.130873, -0.123880, 0.250421, 0.113779, 0.058626, -0.094115, -0.120814, 0.018735, 0.222004, 0.254568, 0.228170, 0.037594, -0.212956, -0.164251, -0.013386, 0.144756, 0.151302, -0.209917, 0.199491, -0.248720, 0.269520, -0.311435, -0.128549, 0.248436, 0.197618, -0.052181, -0.532881, 0.488907, 0.040192, 0.232356, 0.102961, 0.375253, -0.235950, -0.039835, -0.102331, 0.269328, -0.097405, -0.160600, -0.015697, -0.139400, 0.152100, -0.212991, 0.111302, -0.017938, 0.003378, -0.086417, -0.185500, 0.029578, -0.040656, 0.308569, -0.422978, -0.000389, 0.035738, 0.108042, 0.010762],
                    "bias": 0.142793
                },
                {
                    "incomingWeights": [-0.068056, -0.257404, 0.132986, 0.150028, 0.255879, -0.023563, 0.043049, 0.277020, 0.118818, -0.216233, 0.112128, -0.051519, 0.242828, 0.050817, 0.231363, 0.172338, 0.189356, -0.118818, 0.041525, -0.054133, -0.200335, 0.209890, -0.099044, 0.018275, 0.010740, 0.108247, -0.260730, 0.098136, 0.157748, -0.288318, 0.020234, 0.115470, 0.163406, -0.037673, -0.168509, -0.028438, 0.130997, -0.242189, -0.119225, -0.160051, -0.037232, 0.249713, 0.039665, 0.215002, -0.220916, -0.179886, -0.243457, -0.222572, 0.192140, 0.055418, 0.079846, 0.023072, 0.087249, -0.207043, 0.011867, 0.046376, -0.222118, -0.242552, -0.218865, 0.136327, -0.045412, 0.125206, -0.015993, 0.338935],
                    "bias": 0.297451
                },
                {
                    "incomingWeights": [0.220844, 0.249012, -0.013181, -0.168514, -0.204812, 0.370294, -0.140031, -0.042187, -0.002069, -0.141462, -0.003623, 0.279476, -0.037971, 0.200068, -0.240727, 0.027723, 0.175103, 0.403437, 0.197915, 0.243415, -0.224710, 0.233652, -0.356487, -0.045046, -0.355690, 0.326003, 0.006913, -0.193343, 0.080012, 0.100798, 0.082295, -0.250886, -0.192367, 0.085288, -0.038298, -0.161523, -0.071520, 0.339135, 0.129533, 0.131686, -0.110616, -0.054737, -0.056305, -0.010305, -0.351620, -0.631468, -0.225967, 0.080590, 0.235334, -0.154237, -0.301764, 0.133789, 0.100582, 0.343456, -0.088548, -0.387416, -0.253617, -0.386911, -0.118824, -0.053934, 0.027073, -0.098805, -0.009184, -0.212119],
                    "bias": 0.092946
                },
                {
                    "incomingWeights": [0.253644, -0.234491, 0.035072, 0.132919, -0.000654, -0.052158, 0.125687, 0.188632, -0.149560, 0.008612, 0.063438, 0.192357, 0.290866, -0.016653, 0.078394, 0.078280, 0.339744, 0.240239, -0.080719, 0.280629, -0.015211, -0.216276, -0.242766, -0.141499, -0.288401, -0.029602, -0.009768, 0.181272, 0.264673, -0.083623, 0.201685, 0.130251, 0.342675, 0.091459, 0.098351, 0.026702, 0.222402, 0.284904, 0.052877, 0.075624, 0.166304, -0.591218, 0.212772, -0.165553, -0.203724, -0.260326, -0.158951, -0.177670, -0.092128, -0.175271, -0.150985, -0.100548, 0.098243, 0.060716, -0.024486, -0.054094, -0.071792, 0.007410, 0.030716, -0.080748, 0.111348, 0.305380, 0.313276, -0.134754],
                    "bias": -0.147827
                },
                {
                    "incomingWeights": [0.185115, -0.326403, -0.132311, -0.143349, 0.047574, -0.189789, -0.192507, 0.061233, -0.192899, 0.313397, -0.380139, 0.170499, 0.095195, 0.255963, -0.126494, 0.051356, -0.001377, -0.046033, 0.028646, -0.136143, 0.005839, 0.215301, 0.340117, 0.204729, 0.235041, -0.119826, -0.007802, -0.130245, -0.001155, 0.104002, -0.012265, 0.096541, 0.074846, -0.139177, -0.150686, 0.113963, 0.141323, -0.180816, 0.163592, -0.102513, 0.270496, 0.364064, -0.143348, 0.043088, 0.121239, 0.011039, -0.090157, 0.276475, -0.179443, 0.020420, -0.090104, 0.185618, -0.109387, 0.148251, -0.028713, -0.116982, 0.298639, 0.195468, -0.101221, -0.124640, -0.119342, 0.299407, 0.358613, -0.213083],
                    "bias": 0.033508
                },
                {
                    "incomingWeights": [-0.138083, 0.321130, 0.129623, 0.024232, 0.019601, 0.054228, -0.162515, -0.034327, -0.159977, 0.077418, 0.064031, 0.265166, 0.043381, -0.089376, 0.284965, 0.070043, 0.592294, -0.175314, 0.069949, 0.348462, -0.202880, 0.131332, -0.073523, 0.061948, 0.135771, 0.112269, 0.003650, -0.127078, 0.267457, -0.741738, 0.090421, -0.010072, -0.244925, 0.182839, 0.207372, -0.067463, -0.074034, -0.064548, -0.036305, -0.115861, -0.200114, -0.228806, -0.249385, -0.143127, -0.617335, -0.150244, -0.081938, -0.127598, 0.131431, 0.132408, 0.011040, 0.221445, -0.024091, -0.225144, -0.375291, -0.220411, -0.354151, -0.032627, -0.316921, -0.210265, 0.209459, -0.402497, 0.182096, -0.114184],
                    "bias": -0.073902
                },
                {
                    "incomingWeights": [0.309982, 0.183905, 0.186655, 0.119762, 0.073128, 0.243320, 0.316922, -0.118092, 0.309521, -0.022211, -0.053199, -0.216929, 0.058776, 0.093695, 0.161233, 0.130722, -0.216957, 0.305270, -0.143221, 0.090270, 0.179092, -0.314010, 0.030627, -0.142360, 0.177904, -0.092646, 0.210323, -0.015134, -0.086715, -0.140822, 0.257514, -0.105557, -0.005233, 0.176891, -0.088575, 0.056993, -0.046402, 0.276109, 0.104653, 0.021916, 0.036923, 0.230454, 0.015053, -0.051184, 0.038216, -0.128991, -0.147613, 0.208511, 0.104131, 0.079698, -0.120497, -0.134035, 0.204741, 0.004089, 0.099701, 0.229784, -0.174248, -0.216394, 0.262053, -0.003601, 0.063711, -0.005275, 0.302071, 0.199359],
                    "bias": -0.221666
                },
                {
                    "incomingWeights": [-0.456347, 0.119522, 0.233189, -0.086754, -0.469115, -0.649596, -0.215765, 0.125853, 0.012096, -0.100411, -0.140226, -0.264915, 0.229935, -0.330128, 0.194836, 0.002569, -0.067989, 0.236376, 0.012334, -0.235669, 0.030443, -0.117660, -0.167950, 0.343031, -0.173173, -0.022761, -0.368151, 0.153502, 0.201237, -0.035637, 0.534041, -0.188529, -0.117791, 0.162974, -0.276003, -0.270668, -0.111329, -0.254564, -0.052741, -0.506205, 0.249819, -0.332156, -0.131705, 0.106173, -0.239749, 0.010360, 0.788363, -0.595307, -0.048875, -0.112080, 0.200392, -0.646995, 0.059299, -0.134719, 0.000341, 0.209929, -0.533653, 0.130195, 0.189669, -0.514913, -0.231765, -0.155486, 0.104088, -0.170432],
                    "bias": -0.155510
                },
                {
                    "incomingWeights": [0.073824, -0.057815, -0.188496, -0.040213, -0.107668, -0.127338, -0.430263, -0.108077, 0.083650, 0.220499, -0.046443, 0.204632, -0.041764, -0.189527, 0.228344, 0.208907, -0.041647, 0.031543, -0.076908, 0.271026, -0.032389, -0.174205, 0.010978, -0.317375, 0.020702, 0.314540, 0.270031, 0.157394, -0.082015, 0.270164, 0.274532, -0.328099, 0.223293, 0.345196, -0.124834, -0.174573, 0.275508, -0.042819, -0.013770, 0.205498, -0.443680, 0.194209, -0.278647, 0.037825, -0.055282, -0.297814, -0.254910, 0.280155, -0.028155, -0.165437, 0.318001, 0.255826, -0.087583, -0.447824, 0.147699, 0.085387, -0.132273, -0.296087, 0.426188, 0.234801, -0.376816, -0.100490, -0.218296, 0.086209],
                    "bias": 0.106371
                },
                {
                    "incomingWeights": [-0.517268, -0.014826, -0.079996, 0.187893, -0.273483, 0.004525, 0.072536, 0.033226, 0.085770, -0.218971, -0.275227, -0.653045, -0.134525, 0.180319, -0.074430, -0.047584, -0.382969, 0.091028, -0.047532, 0.268196, 0.308980, -0.010979, -0.091069, -0.257868, -0.140127, 0.098632, -0.033208, -0.343895, -0.029616, 0.323975, 0.056847, -0.662642, -0.069104, 0.141998, -0.260065, 0.151809, -0.054585, -0.049353, -0.492142, 0.362265, 0.077297, -0.332861, 0.281126, 0.149607, 0.200187, -0.301896, 0.192529, 0.195246, 0.229694, 0.107494, 0.302887, 0.321250, 0.139789, -0.250427, -0.452868, 0.213764, -0.205640, -0.177828, 0.263203, 0.460260, -0.116343, 0.131175, 0.071707, 0.014237],
                    "bias": -0.405840
                },
                {
                    "incomingWeights": [0.154125, -0.216677, -0.208106, -0.300051, 0.041212, 0.159256, -0.118255, 0.096441, -0.484759, 0.073015, -0.076893, 0.144252, -0.268954, -0.283105, -0.204280, -0.218948, -0.356488, 0.014188, -0.558702, -0.189609, -0.130426, 0.362943, 0.198220, 0.223961, 0.120155, -0.127255, -0.036176, -0.012014, 0.041677, 0.250002, 0.343007, 0.144127, -0.191444, -0.221144, 0.162745, 0.173313, -0.083626, 0.101005, 0.121918, -0.140711, -0.527563, 0.008165, -0.192368, -0.340246, -0.126025, -0.051233, -0.235396, -0.219882, 0.252961, -0.323557, 0.105117, 0.318003, 0.080104, 0.027339, 0.013052, -0.007118, -0.087037, 0.268108, -0.291509, -0.484176, -0.074646, -0.149948, -0.026051, 0.226083],
                    "bias": 0.056480
                },
                {
                    "incomingWeights": [0.016774, -0.052481, 0.186490, -0.127309, -0.004269, 0.000009, 0.250790, 0.313290, -0.258432, 0.164544, 0.078274, -0.050376, 0.112222, 0.283262, 0.309731, 0.157113, -0.045212, -0.242599, -0.323406, 0.153597, -0.025868, -0.100924, -0.106800, 0.136879, 0.151897, 0.053452, 0.335807, -0.003646, -0.186298, 0.245231, 0.037542, 0.032961, -0.127723, 0.087252, 0.379431, -0.266065, -0.093000, -0.281724, -0.022165, -0.330194, -0.235809, 0.282844, -0.183217, 0.134434, -0.277402, -0.115846, -0.153101, -0.064216, -0.062387, -0.025791, -0.248338, 0.009260, -0.101482, 0.070393, 0.374427, -0.252241, 0.111409, 0.163968, -0.083373, 0.013844, -0.272178, -0.212309, -0.034020, 0.086251],
                    "bias": 0.038399
                },
                {
                    "incomingWeights": [-0.135251, -0.035469, -0.061451, 0.023963, 0.112763, 0.041246, 0.244320, 0.293188, -0.128841, -0.024658, -0.130306, 0.005997, -0.181073, -0.251535, 0.159198, -0.282977, -0.410537, -0.489007, -0.204794, 0.279509, 0.193503, 0.109274, 0.193063, 0.139843, 0.199999, -0.076335, -0.104512, 0.397344, -0.247884, 0.306796, -0.140902, 0.145473, 0.303333, 0.152053, 0.268072, -0.033371, -0.227367, 0.103494, 0.002839, -0.195943, -0.172453, -0.580034, 0.160614, -0.023575, 0.175716, 0.126243, -0.114868, -0.405133, 0.162250, 0.064422, -0.163597, 0.178459, 0.327844, -0.140710, -0.164487, -0.075071, 0.172818, 0.083459, 0.343415, 0.116758, -0.311269, -0.409335, -0.072427, 0.188604],
                    "bias": 0.261224
                },
                {
                    "incomingWeights": [-0.137719, 0.010905, 0.072999, -0.151983, -0.213242, 0.239870, 0.243558, -0.126176, -0.003350, -0.210851, 0.169709, 0.170306, -0.047756, -0.050541, 0.117898, 0.020621, 0.139815, 0.250100, -0.182556, 0.101516, -0.049854, -0.250319, 0.050354, 0.062594, 0.121655, -0.038950, 0.126162, -0.159448, -0.141792, 0.017947, 0.143216, 0.183141, 0.291200, 0.271056, 0.266298, -0.058434, 0.039575, 0.121653, -0.066900, -0.124269, 0.131024, 0.030216, 0.047240, 0.032711, 0.238344, -0.091716, -0.106186, 0.051199, 0.253654, -0.076442, -0.140775, 0.110833, -0.169432, -0.021655, -0.096215, -0.033341, 0.125783, -0.056496, 0.173282, -0.203390, -0.113984, -0.255597, -0.112447, 0.042738],
                    "bias": 0.111036
                },
                {
                    "incomingWeights": [-0.259673, -0.360322, -0.287278, 0.029956, -0.276716, -0.260164, -0.288417, 0.376137, 0.298744, -0.232537, -0.127384, 0.334218, -0.114531, 0.229078, 0.457784, 0.014979, 0.250649, -0.191478, 0.213143, 0.132222, 0.223314, -0.237187, 0.313957, -0.096312, -0.372494, 0.217146, -0.153513, -0.262406, -0.216752, 0.420741, 0.033075, -0.179070, 0.320173, -0.202196, -0.636949, 0.312765, 0.308911, 0.202878, -0.258992, -0.067355, -0.145397, 0.131711, 0.078923, 0.217105, 0.282709, 0.002979, 0.175332, -0.079935, 0.041255, -0.205673, -0.020958, 0.162861, -0.153554, -0.350136, -0.060903, 0.186878, -0.036437, -0.039636, -0.170906, 0.358204, -0.039667, -0.061446, 0.173023, -0.436509],
                    "bias": -0.295850
                },
                {
                    "incomingWeights": [0.016336, -0.172639, -0.198860, -0.231122, -0.227825, 0.046942, 0.332019, 0.246235, -0.244579, -0.228595, 0.127018, -0.316621, -0.034228, -0.152404, -0.078792, -0.176999, -0.214766, -0.009565, 0.024855, 0.047661, -0.193067, 0.184252, 0.265480, 0.168966, -0.219410, -0.037408, 0.203840, 0.242582, 0.126677, 0.087124, -0.318463, -0.277896, -0.189393, 0.026264, -0.171103, -0.012172, -0.481355, -0.145363, -0.077147, 0.043540, -0.112376, -0.000808, 0.034565, 0.080651, 0.110465, -0.003466, 0.120059, -0.089547, 0.248354, -0.082952, -0.095239, 0.150789, 0.082863, 0.063626, -0.471443, -0.071051, -0.200803, 0.191632, 0.314144, 0.053559, -0.152081, 0.167303, -0.028567, -0.063811],
                    "bias": 0.035698
                },
                {
                    "incomingWeights": [0.245956, 0.225295, 0.091904, -0.098656, -0.022763, -0.176359, 0.249137, 0.092247, -0.002705, 0.095927, 0.087952, 0.230278, 0.047565, 0.317571, -0.198344, 0.107141, 0.125959, 0.056456, 0.163811, -0.270720, -0.075696, -0.327795, -0.138823, -0.144145, -0.174255, 0.126595, -0.007841, -0.377287, 0.169940, 0.189511, 0.080196, 0.142410, -0.232787, -0.167620, -0.103032, -0.033993, 0.379227, 0.072550, 0.363132, -0.173834, 0.110777, 0.158552, -0.192265, 0.075038, 0.018807, -0.328112, 0.144469, 0.169182, -0.278203, 0.197082, -0.179125, 0.155343, 0.129311, -0.030796, -0.155641, -0.057745, 0.112174, -0.057227, 0.106115, 0.139156, 0.131086, 0.285167, -0.139485, 0.142335],
                    "bias": -0.027754
                },
                {
                    "incomingWeights": [0.103826, 0.080315, 0.049849, -0.343540, -0.064025, -0.432531, -0.040618, 0.024903, -0.810623, -0.196928, 0.068589, 0.137113, -0.276751, 0.054426, 0.087554, -0.385231, 0.201436, -0.010265, -0.390740, 0.023717, 0.228681, 0.273253, 0.116366, -0.109102, -0.066633, 0.030177, -0.066860, 0.097874, 0.163536, -0.186590, -0.134913, -0.584902, -0.064861, -0.401997, -0.112890, 0.008565, -0.179381, 0.199194, -0.236523, 0.255973, 0.389218, 0.023779, 0.141738, 0.060573, 0.292649, 0.404000, -0.206481, 0.105081, -0.242725, -0.126451, -0.241267, -0.038106, -0.000509, 0.305180, -0.462093, -0.146149, -0.286738, 0.073130, -0.319543, 0.109327, 0.012730, -0.116442, 0.024343, -0.178745],
                    "bias": 0.222348
                },
                {
                    "incomingWeights": [0.004366, -0.626089, 0.109025, 0.228769, -0.028729, -0.200908, -0.377155, -0.285843, -0.210025, 0.360726, 0.336213, -0.205759, -0.291797, -0.244490, 0.048045, -0.034329, -0.021683, -0.355713, 0.107062, 0.039590, -0.126941, -0.207374, -0.587638, 0.048099, -0.312393, -0.086910, -0.332659, -0.042583, -0.163095, 0.105378, -0.768294, -0.119129, -0.172780, -0.562847, -0.010415, -0.166285, 0.025755, 0.348360, 0.002429, -0.665447, -0.253607, -0.563601, -0.178722, -0.108663, -0.114936, -0.199577, -0.104139, 0.161930, 0.207874, -0.619954, -0.316348, -0.083381, -0.082174, -0.726016, -0.041272, -0.347678, 0.080495, -0.294086, -0.333639, 0.151362, -0.038887, -0.645046, 0.220856, 0.076421],
                    "bias": 0.161965
                },
                {
                    "incomingWeights": [-0.081140, -0.049220, 0.158542, -0.229631, -0.140330, 0.031061, 0.168216, -0.163643, 0.134634, 0.179623, 0.272600, -0.133642, 0.114697, 0.081537, -0.222887, 0.084947, 0.017121, 0.197946, -0.137776, 0.078522, 0.121734, 0.181787, -0.078882, -0.143378, 0.030722, 0.019664, 0.036155, 0.259584, 0.084947, -0.219944, -0.192366, 0.019306, 0.101083, 0.243891, 0.179371, -0.116376, 0.254807, 0.106462, 0.154331, 0.027191, 0.006353, 0.318776, -0.098280, 0.250674, -0.096239, 0.026133, 0.087398, 0.253351, -0.030542, 0.115440, -0.074977, -0.134075, 0.047197, 0.168729, 0.041449, 0.146358, -0.234382, 0.200919, -0.172900, -0.187207, -0.020951, 0.095244, -0.067615, -0.194020],
                    "bias": 0.130072
                },
                {
                    "incomingWeights": [-0.563733, -0.018282, 0.205009, -0.108178, -0.126888, 0.220665, -0.705803, -0.196105, 0.036511, 0.174649, -0.056387, -0.243387, -0.032015, -0.157421, 0.186965, 0.099137, 0.112328, 0.241723, 0.303235, -0.099295, -0.070370, 0.043051, -0.126495, 0.051812, -0.105552, -0.079407, -0.304935, 0.009557, 0.131132, -0.282602, -0.232364, -0.107985, 0.243688, -0.083922, -0.253944, 0.157957, 0.150055, -0.190049, -0.053520, -0.278845, -0.182587, -0.105568, -0.232959, -0.074330, -0.427575, -0.824830, -0.422620, 0.227733, 0.198768, -0.155942, -0.038304, -0.211885, 0.083035, -0.119068, -0.387001, -0.238237, 0.038832, 0.051790, 0.045020, 0.106087, -0.076779, -0.100362, -0.059841, -0.066619],
                    "bias": -0.033337
                },
                {
                    "incomingWeights": [-0.304812, -0.183689, -0.227284, -0.092149, 0.189894, 0.411781, 0.228027, 0.172908, 0.026810, 0.150493, -0.174589, 0.202860, -0.163466, -0.040799, -0.154578, 0.192605, -0.126476, 0.050811, -0.242173, 0.234552, -0.184658, -0.024898, 0.225622, 0.129748, -0.072043, 0.080131, -0.185807, -0.292020, 0.270260, 0.487453, 0.016685, 0.136545, -0.046554, 0.051880, 0.050282, -0.034625, -0.062974, 0.299091, 0.115784, -0.117540, -0.363319, -0.031153, 0.035726, 0.242529, -0.434338, -0.381940, 0.173240, 0.267132, -0.046976, 0.335809, 0.042921, 0.100863, 0.180089, -0.270384, 0.299068, 0.029924, -0.324989, 0.118408, 0.335404, 0.135617, -0.134029, 0.015943, -0.185794, 0.152692],
                    "bias": -0.213901
                },
                {
                    "incomingWeights": [-0.121048, 0.055172, 0.173291, 0.133391, -0.009004, 0.206943, -0.026354, 0.178626, 0.376651, 0.145608, -0.075025, 0.229224, -0.069673, 0.227452, 0.103188, -0.077226, -0.178278, -0.100264, -0.094035, 0.259572, 0.227486, 0.096418, -0.185186, -0.029187, -0.212345, -0.233916, -0.142455, 0.217166, -0.022212, 0.223947, -0.222541, 0.185612, 0.175888, 0.016292, 0.121003, -0.104160, 0.048457, 0.253841, 0.208158, -0.076746, 0.148984, 0.196677, 0.149049, -0.025941, 0.148255, 0.039209, 0.190588, 0.157065, 0.069992, 0.090979, 0.093374, 0.238015, 0.092016, 0.071129, -0.139954, -0.197413, 0.005799, 0.056518, 0.023002, -0.147681, 0.089868, -0.095875, -0.042456, 0.037303],
                    "bias": 0.058425
                },
                {
                    "incomingWeights": [0.280911, -0.024759, 0.131854, 0.121243, -0.184844, 0.226998, -0.126128, -0.261453, -0.254229, -0.078550, 0.336284, 0.046863, 0.040894, -0.152636, 0.074535, 0.258094, -0.148296, 0.218686, -0.283540, 0.200598, -0.058788, 0.071614, -0.183995, -0.137909, 0.305605, 0.204212, -0.099332, -0.024125, 0.163974, -0.150780, 0.294258, 0.383648, 0.143044, 0.238837, 0.044723, -0.129073, 0.140065, 0.093569, -0.179743, 0.165033, -0.229819, 0.005706, 0.039812, -0.181977, -0.124387, -0.037914, 0.164689, -0.040274, -0.065623, 0.099345, -0.076168, -0.031345, 0.238010, -0.089670, -0.186823, 0.275339, -0.276118, -0.175791, -0.001051, 0.095071, 0.259505, -0.302587, 0.324436, -0.092253],
                    "bias": 0.109603
                },
                {
                    "incomingWeights": [-0.118912, -0.008578, 0.325439, -0.234033, 0.058094, -0.141054, 0.036761, 0.210829, -0.289487, -0.226189, 0.140839, -0.198917, -0.206116, 0.044818, 0.119451, -0.007999, -0.284643, -0.114757, -0.210855, -0.220446, 0.059014, -0.236352, 0.102011, -0.459441, 0.131332, 0.483697, 0.112220, 0.115407, -0.392613, -0.000170, -0.039299, 0.040430, 0.442627, -0.033879, -0.270759, 0.040206, 0.319832, -0.138175, 0.288085, -0.204182, -0.305867, 0.281978, 0.109278, 0.134963, -0.141538, -0.214875, -0.289035, 0.171334, 0.102873, 0.215578, -0.103293, -0.017289, 0.163980, -0.173207, -0.023348, 0.191654, 0.268625, 0.106306, 0.026672, -0.287196, -0.359648, -0.568924, 0.064784, 0.323060],
                    "bias": 0.233356
                },
                {
                    "incomingWeights": [-0.183396, -0.155908, -0.107123, 0.020624, -0.224406, 0.042325, -0.003166, 0.132730, 0.156812, -0.005727, -0.201905, -0.209010, 0.138900, 0.158142, 0.215717, 0.006947, 0.205993, 0.182852, -0.200548, 0.147681, -0.003865, -0.200357, 0.110211, -0.227261, -0.060840, 0.176575, 0.085261, 0.075797, -0.039509, -0.244525, 0.286872, -0.201974, 0.098582, 0.022660, -0.017323, 0.218751, 0.097172, -0.154109, 0.191801, 0.259326, 0.222103, -0.030337, -0.102569, 0.155559, -0.173661, -0.244153, 0.163012, -0.033114, 0.119937, 0.295496, -0.080956, 0.130212, -0.049277, -0.169587, -0.043547, 0.314766, 0.142829, 0.155630, 0.051508, 0.052870, 0.292334, -0.255776, 0.206756, -0.032526],
                    "bias": -0.236963
                },
                {
                    "incomingWeights": [-0.134187, 0.413236, 0.262799, 0.196764, -0.273086, -0.438536, -0.035678, -0.291198, 0.080738, -0.048582, 0.212985, 0.051574, 0.257752, -0.158389, 0.139794, 0.215054, -0.091551, -0.227526, -0.229008, -0.011797, 0.095209, 0.099723, -0.140286, 0.231428, -0.418563, 0.213264, -0.178851, 0.175663, -0.230785, -0.151253, -0.366515, -0.160957, -0.102863, -0.107588, -0.192542, 0.194147, -0.054850, 0.219443, -0.017377, -0.004048, -0.050473, -0.064600, 0.065686, 0.212155, -0.290061, 0.151945, -0.294547, 0.212798, -0.001675, 0.265406, -0.114700, -0.143954, -0.196090, 0.301022, -0.072455, 0.009430, -0.107591, -0.214973, -0.238200, -0.065096, -0.237168, 0.061960, -0.284669, -0.014036],
                    "bias": -0.234248
                },
                {
                    "incomingWeights": [0.168287, 0.103661, -0.216920, 0.159502, 0.207913, 0.094779, -0.084649, 0.243167, -0.292496, 0.201624, -0.030741, 0.070456, -0.195850, 0.149594, 0.153098, 0.161393, 0.312716, -0.000323, -0.319544, 0.174096, 0.186311, 0.055844, 0.354400, -0.157451, 0.210373, 0.387332, -0.188942, 0.070132, -0.026763, 0.057861, -0.212044, 0.146924, 0.159447, -0.044974, 0.020824, 0.305094, 0.169688, -0.032067, 0.006777, -0.176501, -0.176535, -0.036453, 0.121672, -0.040931, 0.202225, 0.336029, -0.196525, 0.342190, 0.051641, 0.252038, -0.132363, 0.041806, -0.284112, -0.160123, 0.115552, 0.060895, -0.239807, 0.334960, -0.200002, -0.112295, 0.304920, 0.434941, -0.052968, -0.058698],
                    "bias": 0.136280
                },
                {
                    "incomingWeights": [0.121794, -0.233238, -0.085788, 0.292231, 0.092895, -0.333961, 0.261322, -0.127708, -0.081034, 0.059307, 0.152679, 0.206261, -0.378825, 0.116637, -0.394514, -0.055147, 0.126627, -0.002557, -0.095813, 0.283996, 0.238127, 0.102938, 0.021722, -0.133812, 0.168374, 0.103432, -0.108718, 0.226782, -0.227210, -0.180026, -0.059791, -0.082869, -0.177821, 0.025237, 0.030401, 0.024732, -0.104366, 0.005221, -0.076224, 0.139328, 0.370391, 0.245733, -0.134167, 0.008959, -0.176512, 0.100485, -0.037502, -0.039668, -0.813702, -0.597434, -0.213059, 0.184938, -0.481149, 0.083255, -0.527989, -0.153819, 0.067167, 0.143869, -0.550542, 0.304229, -0.255531, 0.859453, 0.114084, 0.063235],
                    "bias": -0.139524
                },
                {
                    "incomingWeights": [0.191358, -0.193330, -0.037894, 0.061963, 0.185306, 0.247706, 0.208345, 0.170614, -0.244771, -0.138165, -0.005667, 0.143172, -0.044621, 0.147733, -0.219628, -0.009454, -0.101412, 0.142926, -0.041847, 0.012053, -0.013745, -0.198179, -0.199994, -0.160884, 0.028723, 0.221045, -0.243881, -0.106389, -0.258927, 0.404745, -0.009548, -0.243257, -0.166047, -0.173076, -0.100111, 0.076631, 0.220200, -0.018190, 0.121106, -0.206913, 0.035822, -0.296654, 0.113427, 0.295031, -0.026852, 0.094825, 0.201004, -0.242152, -0.094027, 0.101569, -0.077055, 0.169243, 0.163431, 0.148971, 0.169289, -0.237375, 0.013643, 0.334770, 0.323016, -0.093345, 0.279570, -0.185951, -0.236684, 0.074462],
                    "bias": 0.117010
                },
                {
                    "incomingWeights": [-0.122985, 0.287285, 0.016950, -0.150842, -0.008561, -0.019075, 0.245899, -0.201073, 0.020580, 0.261050, -0.134956, -0.224526, -0.085616, 0.244828, 0.148413, 0.058208, 0.087888, 0.015120, 0.111526, -0.247303, 0.105841, 0.018621, -0.064663, 0.218968, -0.153561, 0.308437, 0.216362, 0.214943, 0.053261, 0.019822, 0.041902, 0.173865, -0.144436, -0.108214, 0.149860, -0.128901, 0.001052, 0.134692, 0.071871, 0.072546, 0.238570, -0.164302, -0.013002, 0.200692, -0.001466, -0.195561, -0.146903, 0.050173, -0.136753, 0.204633, 0.160114, -0.168405, 0.190094, -0.040803, -0.053548, 0.296867, 0.008795, -0.118113, 0.042181, -0.149688, 0.001017, 0.159893, -0.141199, 0.122287],
                    "bias": -0.132214
                },
                {
                    "incomingWeights": [0.190929, -0.123646, 0.131161, -0.105829, 0.276514, 0.119906, 0.184536, 0.211787, -0.271790, 0.289461, 0.159518, -0.197985, -0.123431, 0.074911, -0.265582, 0.220408, -0.147027, 0.057082, 0.246052, 0.126401, 0.160978, 0.078194, -0.129464, -0.059701, -0.220978, 0.279540, 0.236877, -0.024673, 0.080824, -0.088371, -0.146167, 0.222138, -0.342598, -0.050081, -0.067064, 0.020245, 0.072740, -0.251020, 0.068340, 0.189923, -0.013576, -0.149348, 0.341751, 0.137716, -0.104105, 0.040565, 0.270304, -0.109783, -0.019092, -0.187341, -0.015110, -0.194274, 0.066020, 0.111303, 0.030027, -0.052691, -0.113044, 0.036210, -0.073518, -0.009683, -0.131387, -0.201227, 0.056627, -0.099758],
                    "bias": 0.174156
                },
                {
                    "incomingWeights": [0.075828, 0.036043, -0.325784, 0.118499, -0.085958, -0.165343, -0.165521, 0.049587, -0.075956, -0.011265, -0.026667, -0.221948, -0.238079, -0.104675, 0.147453, -0.287604, -0.216610, -0.157349, -0.186489, 0.003208, 0.107940, -0.277615, 0.263555, -0.089019, 0.119640, -0.113405, 0.285298, -0.147136, 0.008323, 0.171010, -0.022030, -0.367496, 0.197166, -0.149771, 0.211688, 0.069876, 0.235229, 0.011289, 0.161549, 0.226626, 0.037702, 0.265956, 0.100228, -0.016487, 0.311012, -0.013290, 0.286942, 0.270916, -0.291768, 0.096126, -0.295675, 0.141382, -0.106541, 0.122887, -0.093492, -0.121150, -0.170114, 0.038004, -0.267707, -0.359927, -0.043950, -0.203085, 0.211559, -0.137280],
                    "bias": 0.066680
                }
            ]
        },
        {
            "neuronCount": 3,
            "neurons": [
                {
                    "incomingWeights": [-0.105119, -0.152855, -0.019055, -0.742974, -0.256047, 0.096097, 0.230390, -0.268973, -0.304303, -0.120578, 0.063593, -0.198008, -0.221133, 0.200662, -0.257141, 0.101113, -0.104107, -0.071734, 0.290170, -0.332591, 0.063216, -0.362324, -0.018113, -0.040879, -0.120735, -0.124514, 0.029361, 0.030708, 0.206450, -0.371293, -0.264394, 0.099067, 0.026989, 0.221710, 0.213632, 0.181065, -0.505433, -0.233392, 0.186513, -0.323016, -0.260864, 0.259254, -0.153352, -0.210926, -0.161600, -0.218885, -0.143859, 0.234283, 0.256568, 0.413946, 0.143209, 0.315550, -0.214685, 0.021216, 0.275159, 0.276904, 0.029132, -0.314464, 0.282264, -0.284792, 0.189789, 0.021116, -0.140624, 0.158289],
                    "bias": 0.218642
                },
                {
                    "incomingWeights": [-0.050309, -0.086044, -0.212181, -0.844502, -0.266663, -0.037228, 0.221828, -0.193359, -0.316804, -0.052008, -0.198163, -0.118422, -0.214730, 0.165648, -0.237272, 0.075245, 0.129194, 0.075560, 0.232949, -0.337305, 0.078181, -0.359047, 0.196924, -0.146832, -0.258293, -0.054391, -0.132296, 0.145666, 0.205834, -0.426174, -0.176201, 0.211228, 0.129567, 0.162005, 0.198954, 0.256326, -0.491920, -0.159840, 0.175137, -0.336924, -0.314090, 0.149368, -0.162452, -0.145737, 0.012444, -0.251040, -0.174315, 0.226898, 0.240497, 0.272661, 0.178276, 0.290043, -0.280203, 0.047214, 0.213128, 0.339243, 0.023392, -0.264403, 0.204587, -0.242298, 0.036123, -0.095259, 0.036120, 0.141960],
                    "bias": 0.220390
                },
                {
                    "incomingWeights": [-0.084910, -0.186483, 0.205716, -0.721589, -0.280832, 0.213698, 0.366998, -0.344645, -0.358609, -0.066940, -0.069100, -0.194495, -0.212394, 0.228195, -0.175708, 0.207470, -0.100575, -0.143104, 0.291621, -0.353416, 0.132785, -0.379345, 0.082719, -0.195015, -0.178017, 0.137511, -0.022914, 0.087696, 0.228533, -0.424195, -0.259643, 0.175397, 0.040993, 0.213949, 0.132599, 0.153443, -0.471177, -0.256136, 0.202946, -0.359714, -0.291281, 0.217517, -0.175302, -0.202104, 0.111412, -0.226938, -0.053632, 0.211934, 0.267926, 0.416516, 0.067781, 0.335014, -0.237359, -0.201370, 0.205689, 0.303453, -0.120914, -0.289623, 0.246001, -0.271840, 0.126804, -0.026105, -0.008904, 0.135272],
                    "bias": 0.057734
                }
            ]
        }
    ]
}
