{
    "layerCount": 4,
    "activationFunctions": [
        1,
        1,
        3
    ],
    "layers": [
        {
            "neuronCount": 6,
            "neurons": [
                {
                    "bias": -0.091336
                },
                {
                    "bias": -0.282495
                },
                {
                    "bias": -0.098430
                },
                {
                    "bias": -0.119186
                },
                {
                    "bias": 0.241069
                },
                {
                    "bias": -0.153037
                }
            ]
        },
        {
            "neuronCount": 32,
            "neurons": [
                {
                    "incomingWeights": [0.209011, -0.085157, 0.259232, 0.072079, 0.080637, 0.186463],
                    "bias": -0.301804
                },
                {
                    "incomingWeights": [-0.216635, -0.159642, -0.225418, 0.200736, 0.280708, -0.193126],
                    "bias": -0.238636
                },
                {
                    "incomingWeights": [-0.249955, -0.211887, 0.149743, 0.030971, 0.203396, 0.086066],
                    "bias": -0.216840
                },
                {
                    "incomingWeights": [0.167442, 0.342152, 0.066240, -0.057364, 0.037234, -0.047079],
                    "bias": -0.091345
                },
                {
                    "incomingWeights": [0.024882, -0.144272, 0.223431, 0.308330, -0.402225, 0.073183],
                    "bias": -0.083016
                },
                {
                    "incomingWeights": [-0.038403, -0.090615, -0.109546, 0.414973, 0.031761, -0.302898],
                    "bias": 0.148840
                },
                {
                    "incomingWeights": [-0.218655, 0.068714, -0.122342, 0.002112, 0.096995, -0.009227],
                    "bias": -0.280246
                },
                {
                    "incomingWeights": [0.068977, 0.124027, -0.187341, -0.288770, 0.015978, -0.351567],
                    "bias": 0.175775
                },
                {
                    "incomingWeights": [0.125105, -0.144036, 0.060623, -0.359265, 0.014273, -0.035011],
                    "bias": 0.230471
                },
                {
                    "incomingWeights": [-0.343905, 0.028347, 0.136577, 0.319933, 0.036116, 0.084497],
                    "bias": 0.021903
                },
                {
                    "incomingWeights": [-0.345510, 0.064777, -0.152285, 0.347940, -0.003906, -0.027318],
                    "bias": 0.079552
                },
                {
                    "incomingWeights": [0.134516, 0.138351, 0.118619, 0.377640, 0.016347, 0.213425],
                    "bias": -0.049320
                },
                {
                    "incomingWeights": [-0.153370, -0.274465, 0.198194, -0.065840, -0.038001, -0.297235],
                    "bias": 0.261729
                },
                {
                    "incomingWeights": [0.288871, 0.263686, 0.061981, 0.352036, -0.032396, 0.040764],
                    "bias": -0.283879
                },
                {
                    "incomingWeights": [0.338410, 0.242005, 0.290032, -0.061240, -0.002783, -0.023430],
                    "bias": 0.168159
                },
                {
                    "incomingWeights": [0.187337, -0.147260, -0.271995, -0.257282, 0.171295, -0.308127],
                    "bias": 0.283400
                },
                {
                    "incomingWeights": [-0.067708, 0.125119, -0.198050, 0.368435, -0.057080, 0.037210],
                    "bias": -0.113864
                },
                {
                    "incomingWeights": [0.075359, -0.135613, 0.040543, -0.289395, -0.037862, -0.039286],
                    "bias": 0.141175
                },
                {
                    "incomingWeights": [-0.343449, -0.184078, 0.072647, 0.273751, -0.169444, 0.237448],
                    "bias": -0.117144
                },
                {
                    "incomingWeights": [0.397776, 0.392092, 0.064333, 0.092528, 0.141700, -0.042273],
                    "bias": 0.149062
                },
                {
                    "incomingWeights": [0.046279, -0.178165, 0.171873, 0.254021, 0.104757, -0.193375],
                    "bias": 0.073880
                },
                {
                    "incomingWeights": [-0.130061, -0.384729, 0.076873, -0.107909, 0.001111, -0.217120],
                    "bias": 0.245269
                },
                {
                    "incomingWeights": [0.141047, -0.310206, 0.310120, 0.013240, 0.230359, 0.297499],
                    "bias": 0.052999
                },
                {
                    "incomingWeights": [0.106507, -0.181993, -0.130618, -0.929001, -0.247704, 0.100664],
                    "bias": -0.143347
                },
                {
                    "incomingWeights": [0.042346, 0.129141, 0.123646, 0.198096, 0.210133, -0.261404],
                    "bias": -0.021109
                },
                {
                    "incomingWeights": [0.373764, -0.245280, 0.137403, -0.017758, 0.076619, 0.213455],
                    "bias": 0.272148
                },
                {
                    "incomingWeights": [-0.303847, -0.285567, -0.177090, -0.778254, 0.152771, -0.179186],
                    "bias": -0.193079
                },
                {
                    "incomingWeights": [0.007385, -0.324468, 0.163186, -0.221491, 0.008458, 0.039403],
                    "bias": 0.121160
                },
                {
                    "incomingWeights": [-0.055783, -0.384138, 0.028449, 0.120276, -0.145605, 0.088366],
                    "bias": -0.143406
                },
                {
                    "incomingWeights": [-0.032924, -0.018125, -0.057517, 0.282302, 0.183345, 0.028292],
                    "bias": 0.018057
                },
                {
                    "incomingWeights": [0.054184, 0.142382, -0.200934, 0.126462, 0.060848, -0.226840],
                    "bias": 0.234140
                },
                {
                    "incomingWeights": [-0.074055, -0.248341, -0.267769, 0.212154, -0.135762, 0.041573],
                    "bias": -0.280590
                }
            ]
        },
        {
            "neuronCount": 16,
            "neurons": [
                {
                    "incomingWeights": [-0.225729, -0.239643, 0.078499, 0.149902, 0.171389, -0.213293, 0.062516, 0.281750, -0.429206, 0.187185, 0.088977, -0.150565, 0.072098, -0.265436, 0.045981, 0.054065, -0.263389, -0.556945, 0.314645, 0.238664, -0.223271, -0.040040, -0.026691, 0.609135, 0.192128, -0.053770, 0.003259, 0.022306, -0.138021, -0.136608, 0.195692, 0.076227],
                    "bias": 0.243409
                },
                {
                    "incomingWeights": [0.483679, 0.170610, 0.121809, 0.570461, 0.271433, -0.214590, 0.108512, -0.061333, 0.414026, -0.308011, 0.144971, -0.340980, 0.008295, -0.119687, -0.224909, 0.446836, 0.180294, 0.719994, 0.115952, -0.305018, 0.160167, 0.200307, 0.273720, -0.382509, -0.169236, 0.041490, -0.286563, 0.402501, 0.020498, 0.172299, 0.208971, 0.082788],
                    "bias": 0.096101
                },
                {
                    "incomingWeights": [0.403489, 0.019080, -0.389251, -0.231676, -0.220952, 0.178636, -0.247036, 0.033805, -0.048569, 0.114835, 0.132172, 0.245774, -0.102685, 0.202912, 0.308990, 0.192932, 0.102803, 0.148555, 0.179321, 0.233390, -0.116892, -0.042785, 0.297258, -0.046406, -0.226493, -0.064096, 0.100141, 0.152362, -0.308975, 0.013090, 0.235128, 0.146258],
                    "bias": -0.045492
                },
                {
                    "incomingWeights": [0.549905, 0.295073, 0.138050, 0.451179, -0.075993, 0.126823, 0.196563, 0.200754, 0.712621, -0.410373, -0.339338, -0.530584, 0.035549, -0.049117, -0.059233, 0.232596, 0.164025, 0.490546, -0.193065, -0.154333, -0.202706, 0.006261, -0.020690, -0.228849, 0.210381, 0.223936, -0.190910, 0.076232, 0.257126, -0.220521, -0.083583, -0.156853],
                    "bias": 0.156232
                },
                {
                    "incomingWeights": [-0.242614, 0.130260, -0.146996, 0.134110, -0.277849, -0.232826, 0.060884, 0.086073, -0.357580, -0.008477, 0.404392, 0.325876, -0.103751, -0.322332, -0.179617, -0.523466, -0.314157, -0.685997, 0.060086, 0.274541, -0.135754, -0.187716, 0.131498, 0.339464, -0.192221, 0.250512, -0.144211, 0.517263, -0.127419, -0.157885, -0.069474, -0.202377],
                    "bias": 0.067615
                },
                {
                    "incomingWeights": [0.194530, 0.310778, -0.189749, 0.282576, -0.253246, 0.192557, 0.229132, 0.277781, 0.763239, 0.068717, -0.080488, -0.229357, -0.118247, 0.204051, -0.297598, 0.125371, 0.363811, 0.697885, 0.028746, 0.002688, -0.277729, 0.232431, -0.021092, -0.463313, -0.293125, 0.051963, -0.176025, 0.077017, -0.533249, 0.074386, -0.185466, 0.194145],
                    "bias": 0.166379
                },
                {
                    "incomingWeights": [0.417819, -0.232238, 0.183695, 0.085473, 0.072755, 0.128755, 0.258872, 0.296208, 0.138107, -0.380366, -0.024607, -0.313406, -0.139101, 0.209218, 0.007671, -0.121430, -0.350831, 0.425521, 0.293026, 0.135400, 0.051652, -0.098442, 0.252209, 0.382601, 0.150859, 0.259362, -0.159745, 0.117686, -0.187984, 0.149851, -0.250200, 0.099556],
                    "bias": -0.173796
                },
                {
                    "incomingWeights": [-0.139014, -0.021742, -0.079144, -0.035110, 0.171603, -0.118483, 0.265309, -0.209911, 0.305132, -0.101585, -0.287165, 0.123088, -0.306554, -0.098623, -0.254043, -0.209508, 0.391896, 0.264414, 0.227007, 0.039398, 0.126350, 0.029400, -0.151269, -0.107886, 0.061951, 0.048312, 0.216029, 0.227725, -0.232699, -0.060183, -0.289168, -0.047538],
                    "bias": 0.192542
                },
                {
                    "incomingWeights": [0.071102, -0.163612, -0.366530, 0.349477, 0.004180, -0.017053, 0.070833, 0.028146, -0.046109, -0.102967, -0.117875, 0.192977, 0.021957, -0.235045, 0.217115, 0.182841, -0.090868, 0.059722, 0.323137, 0.225145, 0.181913, -0.203733, -0.008834, -0.322871, 0.145783, -0.024077, -0.234979, -0.305397, 0.097810, -0.169099, 0.024851, -0.077098],
                    "bias": 0.152141
                },
                {
                    "incomingWeights": [0.137394, 0.295263, 0.540305, -0.181367, 0.099115, -0.316102, -0.188413, 0.102650, -0.015909, -0.275942, -0.398885, 0.144886, 0.140461, -0.047883, 0.110832, 0.068588, -0.288679, 0.140973, 0.020684, 0.262132, -0.229020, -0.063341, -0.282836, -0.252573, -0.081064, 0.128818, 0.090562, 0.313994, -0.290040, -0.051802, 0.228295, -0.223908],
                    "bias": -0.076558
                },
                {
                    "incomingWeights": [-0.039187, -0.010028, 0.205990, 0.541159, 0.029354, -0.314951, -0.034110, -0.239218, 0.761271, 0.011748, -0.490666, -0.396597, 0.096736, 0.403427, -0.154121, 0.351287, 0.773495, 0.768430, 0.076143, -0.167846, 0.141907, 0.187118, -0.039910, -0.698082, -0.135783, 0.082622, -0.348053, 0.526583, -0.498868, 0.099637, 0.036285, 0.147472],
                    "bias": -0.003883
                },
                {
                    "incomingWeights": [0.182523, -0.284064, -0.209391, -0.173714, 0.106663, 0.133724, 0.239703, 0.366855, 0.078519, -0.344976, -0.330887, -0.219443, -0.223798, 0.104484, 0.191129, 0.082422, -1.030577, -0.014416, 0.048374, 0.046803, 0.221273, -0.074726, 0.020257, -0.086451, 0.233105, 0.020753, -0.192160, -0.085766, -0.052280, -0.520647, 0.044767, -0.049995],
                    "bias": -0.254992
                },
                {
                    "incomingWeights": [0.480545, 0.225392, 0.258796, 0.037615, -0.211215, -0.142184, -0.160237, -0.385062, 0.738156, -0.012095, -0.267667, 0.183749, -0.204887, 0.241305, -0.321499, 0.253754, 0.322717, 0.467090, 0.100823, -0.081807, 0.155878, 0.101979, 0.042657, -0.552152, 0.133465, -0.151615, -0.196917, 0.221827, -0.454640, 0.300934, 0.171044, 0.011511],
                    "bias": 0.238917
                },
                {
                    "incomingWeights": [0.218000, -0.024012, -0.003859, 0.079132, 0.163231, 0.379655, 0.096519, -0.311394, 0.265505, 0.171934, -0.320118, 0.143629, -0.477938, 0.390348, -0.219368, -0.143272, 0.682381, 0.601101, -0.238827, -0.183645, 0.286860, -0.411399, 0.303241, 0.458127, -0.053748, -0.145105, -0.053718, -0.102682, -0.928506, 0.286313, 0.282792, -0.284059],
                    "bias": -0.029998
                },
                {
                    "incomingWeights": [-0.313479, 0.133882, 0.470802, 0.153322, 0.181473, 0.304641, 0.277406, -0.256911, 0.091377, 0.232098, 0.173069, 0.038320, 0.219775, 0.180867, 0.195451, 0.125236, -0.178089, 0.321814, -0.209354, -0.257837, 0.172787, -0.019971, 0.359913, -0.313407, 0.320395, -0.256775, 0.063448, 0.048469, 0.230823, 0.017527, 0.088657, 0.047188],
                    "bias": -0.086103
                },
                {
                    "incomingWeights": [0.210182, -0.202150, -0.052281, -0.117213, 0.097558, 0.240453, 0.053495, 0.238398, -0.409068, -0.187427, -0.049286, -0.213936, 0.217382, 0.191973, 0.223656, 0.004541, -0.177920, -0.020802, 0.283545, -0.246405, 0.205319, -0.341027, -0.156663, -0.029630, -0.089906, 0.107913, -0.355689, -0.133336, 0.029613, -0.112002, -0.195373, 0.106540],
                    "bias": 0.193768
                }
            ]
        },
        {
            "neuronCount": 3,
            "neurons": [
                {
                    "incomingWeights": [-0.328305, 0.627527, 0.139290, 0.287551, -0.129143, 0.292770, -0.008233, 0.222486, 0.115104, 0.146024, 0.217695, 0.004337, 0.287319, 0.169179, -0.014445, 0.221614],
                    "bias": -0.243298
                },
                {
                    "incomingWeights": [-0.082578, 0.142362, -0.087943, -0.087191, -0.214024, -0.093296, -0.228436, 0.081530, -0.123857, -0.256557, 0.248429, -0.056861, 0.144595, 0.210744, 0.179016, -0.275737],
                    "bias": 0.120964
                },
                {
                    "incomingWeights": [-0.169384, 0.461091, -0.411089, 0.132448, 0.046491, 0.172148, 0.089525, -0.151908, -0.124630, -0.048355, 0.299190, -0.109641, -0.142078, 0.091785, 0.029042, -0.289196],
                    "bias": -0.054844
                }
            ]
        }
    ]
}
