{
    "layerCount": 4,
    "activationFunctions": [
        1,
        1,
        3
    ],
    "layers": [
        {
            "neuronCount": 6,
            "neurons": [
                {
                    "bias": -0.091336
                },
                {
                    "bias": -0.282495
                },
                {
                    "bias": -0.098430
                },
                {
                    "bias": -0.119186
                },
                {
                    "bias": 0.241069
                },
                {
                    "bias": -0.153037
                }
            ]
        },
        {
            "neuronCount": 32,
            "neurons": [
                {
                    "incomingWeights": [0.187660, -0.048961, 0.246763, 0.061167, 0.082182, 0.195371],
                    "bias": -0.289676
                },
                {
                    "incomingWeights": [-0.163161, -0.063143, -0.182005, -0.002571, 0.253143, -0.171885],
                    "bias": -0.266388
                },
                {
                    "incomingWeights": [-0.160125, -0.301314, 0.031886, -0.004544, 0.202696, 0.102456],
                    "bias": -0.217535
                },
                {
                    "incomingWeights": [0.170706, 0.273347, 0.060844, -0.063402, 0.024048, -0.071422],
                    "bias": -0.092430
                },
                {
                    "incomingWeights": [0.005916, -0.154551, 0.231473, 0.313323, -0.309998, 0.126747],
                    "bias": -0.079030
                },
                {
                    "incomingWeights": [-0.050836, -0.053280, -0.108205, 0.406548, 0.084838, -0.246071],
                    "bias": 0.123043
                },
                {
                    "incomingWeights": [-0.218655, 0.068714, -0.122342, 0.002112, 0.096995, -0.009227],
                    "bias": -0.280246
                },
                {
                    "incomingWeights": [0.022846, 0.145908, -0.180320, -0.251830, 0.007182, -0.353686],
                    "bias": 0.158296
                },
                {
                    "incomingWeights": [0.181396, -0.132881, 0.051207, -0.424229, 0.000596, -0.006434],
                    "bias": 0.213081
                },
                {
                    "incomingWeights": [-0.312283, -0.028463, 0.137718, 0.262838, 0.053886, 0.070974],
                    "bias": 0.060920
                },
                {
                    "incomingWeights": [-0.173238, 0.145535, -0.243274, 0.132595, -0.018079, -0.062233],
                    "bias": 0.074374
                },
                {
                    "incomingWeights": [0.146305, 0.136599, 0.098604, 0.162798, 0.030382, 0.227501],
                    "bias": -0.051429
                },
                {
                    "incomingWeights": [-0.126359, -0.227421, 0.187486, -0.141746, -0.087708, -0.229346],
                    "bias": 0.272847
                },
                {
                    "incomingWeights": [0.285460, 0.239079, 0.096899, 0.330972, -0.049096, -0.000299],
                    "bias": -0.301579
                },
                {
                    "incomingWeights": [0.241893, 0.229935, 0.308831, -0.034612, 0.007892, 0.020745],
                    "bias": 0.177349
                },
                {
                    "incomingWeights": [0.212384, -0.122663, -0.275219, -0.323552, 0.173987, -0.306649],
                    "bias": 0.292290
                },
                {
                    "incomingWeights": [-0.078233, 0.121509, -0.193454, 0.343473, -0.060904, 0.039096],
                    "bias": -0.085248
                },
                {
                    "incomingWeights": [0.068338, -0.138988, 0.036118, -0.298693, -0.020581, -0.069567],
                    "bias": 0.134427
                },
                {
                    "incomingWeights": [-0.246129, -0.248346, 0.185218, 0.163874, -0.226132, 0.197700],
                    "bias": -0.140254
                },
                {
                    "incomingWeights": [0.351249, 0.366972, 0.078558, 0.133414, 0.119659, -0.015917],
                    "bias": 0.170054
                },
                {
                    "incomingWeights": [0.066353, -0.207520, 0.168303, 0.214318, 0.080199, -0.179988],
                    "bias": 0.083482
                },
                {
                    "incomingWeights": [-0.116091, -0.388824, 0.090789, -0.133687, -0.021139, -0.212716],
                    "bias": 0.235922
                },
                {
                    "incomingWeights": [0.214571, -0.287305, 0.226303, 0.035912, 0.276969, 0.234693],
                    "bias": 0.057248
                },
                {
                    "incomingWeights": [0.243495, -0.152382, -0.165514, -0.063004, -0.173433, 0.151388],
                    "bias": -0.217628
                },
                {
                    "incomingWeights": [0.080921, 0.115628, 0.153723, 0.197280, 0.166203, -0.250580],
                    "bias": 0.006067
                },
                {
                    "incomingWeights": [0.332457, -0.235096, 0.180301, -0.018973, 0.108703, 0.225619],
                    "bias": 0.275269
                },
                {
                    "incomingWeights": [-0.207205, -0.212337, -0.192641, -0.146457, 0.160551, -0.187025],
                    "bias": -0.185240
                },
                {
                    "incomingWeights": [-0.021705, -0.323204, 0.219305, -0.251061, 0.017678, 0.043633],
                    "bias": 0.113925
                },
                {
                    "incomingWeights": [0.046383, -0.233288, 0.121006, -0.006715, -0.122313, 0.092436],
                    "bias": -0.166703
                },
                {
                    "incomingWeights": [0.012278, -0.049389, -0.015339, 0.265145, 0.202064, -0.021817],
                    "bias": 0.044486
                },
                {
                    "incomingWeights": [0.096638, 0.144456, -0.171530, 0.189504, 0.101450, -0.208303],
                    "bias": 0.252819
                },
                {
                    "incomingWeights": [-0.074055, -0.248341, -0.267769, 0.212154, -0.135762, 0.041573],
                    "bias": -0.280590
                }
            ]
        },
        {
            "neuronCount": 16,
            "neurons": [
                {
                    "incomingWeights": [-0.244744, -0.103287, 0.144699, 0.149663, 0.158587, -0.149878, 0.062516, 0.224515, -0.575371, 0.220284, -0.203493, -0.190295, 0.022060, -0.245489, 0.041125, 0.044975, 0.001617, -0.561510, 0.255592, 0.234187, -0.178003, -0.064815, -0.006206, 0.259781, 0.240247, -0.034819, -0.065918, -0.096599, -0.043259, -0.093722, 0.201372, 0.076227],
                    "bias": 0.250559
                },
                {
                    "incomingWeights": [0.251584, 0.084708, 0.054768, 0.520276, 0.248319, -0.242831, 0.108512, -0.038101, 0.410804, -0.273185, 0.122595, -0.203856, -0.003834, -0.111281, -0.228171, 0.492772, 0.047559, 0.694762, 0.228339, -0.304395, 0.152361, 0.147244, 0.262565, -0.024082, -0.181732, 0.014896, -0.219293, 0.450995, -0.113579, 0.153801, 0.205239, 0.082788],
                    "bias": 0.067835
                },
                {
                    "incomingWeights": [0.307682, -0.042046, -0.270079, -0.235695, -0.190853, 0.203194, -0.247036, 0.053176, -0.002635, 0.240413, 0.196656, 0.277330, -0.098830, 0.269708, 0.301256, 0.172476, 0.078958, 0.066561, 0.117606, 0.229914, -0.079700, 0.004553, 0.260424, 0.014623, -0.203229, -0.090360, 0.212720, 0.157762, 0.014940, 0.052410, 0.246587, 0.146258],
                    "bias": -0.036560
                },
                {
                    "incomingWeights": [0.389824, 0.232015, -0.127955, 0.427887, -0.097408, 0.062810, 0.196563, 0.177011, 0.746536, -0.399463, -0.274129, -0.356441, 0.004374, -0.003208, -0.052880, 0.232431, -0.097467, 0.473545, -0.244728, -0.137147, -0.255429, -0.000087, -0.012097, 0.083101, 0.147204, 0.233904, -0.126746, 0.066227, -0.071660, -0.229136, -0.089265, -0.156853],
                    "bias": 0.148369
                },
                {
                    "incomingWeights": [-0.309341, 0.130260, -0.125809, 0.056230, -0.246545, -0.167337, 0.060884, -0.202287, -0.422907, -0.012063, 0.029327, 0.330110, -0.211591, -0.326381, -0.166612, -0.604337, -0.236473, -0.445538, 0.014909, 0.271643, -0.119007, -0.007903, 0.135195, -0.026993, -0.208287, 0.274474, -0.144211, 0.262899, -0.102567, -0.194363, -0.079349, -0.202377],
                    "bias": 0.090367
                },
                {
                    "incomingWeights": [0.079806, 0.219771, -0.242763, 0.245137, -0.217279, 0.178874, 0.229132, 0.288983, 0.759565, 0.165898, 0.007803, -0.071168, -0.063958, 0.275383, -0.281298, 0.112512, 0.079496, 0.683754, -0.016122, 0.010770, -0.267808, 0.248856, -0.037250, -0.156845, -0.306716, 0.015229, -0.111744, 0.181615, -0.397996, 0.045217, -0.179792, 0.194145],
                    "bias": 0.159884
                },
                {
                    "incomingWeights": [0.302687, -0.285651, 0.275419, 0.009324, 0.152920, 0.123706, 0.258872, 0.289075, 0.055596, -0.311651, 0.152536, -0.312187, -0.159570, 0.136835, -0.006073, -0.149269, -0.434747, 0.303237, 0.193382, 0.111434, 0.057665, 0.024577, 0.265558, 0.154403, 0.158338, 0.256844, -0.171214, 0.060745, 0.014249, 0.181509, -0.275247, 0.099556],
                    "bias": -0.169797
                },
                {
                    "incomingWeights": [-0.046343, -0.021742, -0.017168, 0.011762, 0.199826, -0.128028, 0.265309, -0.086155, 0.345180, -0.156920, -0.235179, 0.139012, -0.284859, -0.032926, -0.255302, -0.039580, 0.292654, 0.125708, 0.255876, 0.057466, 0.128035, -0.065208, -0.175354, 0.156807, -0.042808, 0.043373, 0.216029, 0.216585, -0.101701, -0.050910, -0.212633, -0.047538],
                    "bias": 0.202087
                },
                {
                    "incomingWeights": [-0.025458, -0.219289, -0.212448, 0.326780, 0.009071, -0.017029, 0.070833, 0.071054, 0.048207, -0.055407, -0.010105, 0.227939, 0.041976, -0.210899, 0.216292, 0.212908, -0.242058, -0.023634, 0.263470, 0.225086, 0.203429, -0.126628, 0.008159, -0.209770, 0.160143, -0.035225, -0.142834, -0.320288, 0.265265, -0.127116, 0.032040, -0.077098],
                    "bias": 0.162529
                },
                {
                    "incomingWeights": [0.093332, 0.249095, 0.283977, -0.218320, 0.099250, -0.306636, -0.188413, 0.118743, 0.007503, -0.192581, -0.185245, 0.200836, 0.139463, 0.015755, 0.106299, 0.049689, -0.287447, 0.021145, -0.113203, 0.261268, -0.208450, 0.033352, -0.246736, -0.144132, -0.063921, 0.105959, 0.165582, 0.226499, -0.100161, 0.021213, 0.229589, -0.223908],
                    "bias": -0.082353
                },
                {
                    "incomingWeights": [-0.217495, -0.090283, 0.094292, 0.281064, 0.091627, -0.254901, -0.034110, -0.187516, 0.766972, 0.147817, -0.298178, -0.318997, 0.187379, 0.047244, -0.165294, 0.402544, 0.157962, 0.808768, 0.155503, -0.207812, 0.180319, 0.284321, -0.018587, -0.271015, -0.137855, 0.039035, -0.269321, 0.562969, -0.494018, 0.004714, 0.051378, 0.147472],
                    "bias": 0.017610
                },
                {
                    "incomingWeights": [0.212430, -0.214887, -0.209391, -0.253709, 0.161960, 0.136448, 0.239703, 0.282625, -0.050109, -0.040032, -0.259412, -0.167460, -0.239398, 0.103044, 0.155399, -0.075574, -0.189976, 0.112075, 0.048374, 0.001338, 0.215901, -0.141707, 0.064911, -0.086451, 0.196309, -0.012211, -0.105553, 0.172996, -0.052280, -0.301876, 0.007921, -0.049995],
                    "bias": -0.285481
                },
                {
                    "incomingWeights": [0.489699, 0.033112, 0.292532, 0.056013, -0.167483, -0.178303, -0.160237, -0.361810, 0.837255, 0.056715, -0.063797, 0.233301, -0.184905, 0.266887, -0.327169, 0.235357, 0.182197, 0.436794, 0.172775, -0.081070, 0.131901, 0.099601, -0.004614, -0.258902, 0.101473, -0.170157, -0.113649, 0.346231, -0.362123, 0.287190, 0.167685, 0.011511],
                    "bias": 0.229024
                },
                {
                    "incomingWeights": [0.307422, -0.087614, -0.099406, 0.163972, 0.161778, 0.313358, 0.096519, -0.374687, 0.496673, 0.122619, -0.040389, 0.166459, -0.368926, 0.371679, -0.195849, -0.246087, 0.574921, 0.484909, -0.171700, -0.152412, 0.273532, -0.363698, 0.292647, 0.002494, -0.054204, -0.119893, -0.053718, 0.147001, -0.470616, 0.310864, 0.285502, -0.284059],
                    "bias": -0.030023
                },
                {
                    "incomingWeights": [-0.222432, -0.067703, 0.241964, 0.186610, 0.244492, 0.304743, 0.277406, -0.287469, -0.016186, 0.278626, 0.179962, 0.062675, 0.211782, 0.201881, 0.201780, 0.050971, 0.024445, 0.367063, -0.053199, -0.245193, 0.146304, -0.134063, 0.312749, -0.062748, 0.296201, -0.249161, -0.055737, 0.259497, 0.038158, -0.013054, 0.091243, 0.047188],
                    "bias": -0.089517
                },
                {
                    "incomingWeights": [0.135541, -0.245163, 0.227650, -0.129226, 0.102254, 0.232444, 0.053495, 0.282813, -0.312103, -0.148410, 0.038966, -0.177176, 0.224367, 0.231658, 0.223281, 0.012856, -0.233133, -0.089963, 0.196366, -0.251614, 0.206415, -0.290641, -0.159419, 0.056295, -0.081194, 0.075324, -0.260894, -0.118658, 0.223558, -0.098463, -0.207987, 0.106540],
                    "bias": 0.184909
                }
            ]
        },
        {
            "neuronCount": 3,
            "neurons": [
                {
                    "incomingWeights": [-0.339868, 0.561737, 0.166411, 0.287551, -0.129143, 0.292770, -0.008233, 0.222486, 0.115104, 0.146024, 0.217695, 0.004337, 0.287319, 0.169179, -0.014445, 0.221614],
                    "bias": -0.244038
                },
                {
                    "incomingWeights": [-0.074148, 0.102058, -0.082246, -0.087191, -0.214024, -0.093296, -0.228436, 0.081530, -0.123857, -0.256557, 0.248429, -0.056861, 0.144595, 0.210744, 0.179016, -0.275737],
                    "bias": 0.114844
                },
                {
                    "incomingWeights": [-0.169828, 0.486689, -0.376361, 0.132448, 0.046491, 0.172148, 0.089525, -0.151908, -0.124630, -0.048355, 0.299190, -0.109641, -0.142078, 0.091785, 0.029042, -0.289196],
                    "bias": -0.047349
                }
            ]
        }
    ]
}
