{
    "layerCount": 4,
    "activationFunctions": [
        1,
        1,
        3
    ],
    "layers": [
        {
            "neuronCount": 6,
            "neurons": [
                {
                    "bias": -0.237002
                },
                {
                    "bias": 0.103382
                },
                {
                    "bias": -0.057403
                },
                {
                    "bias": 0.035927
                },
                {
                    "bias": 0.224163
                },
                {
                    "bias": 0.111775
                }
            ]
        },
        {
            "neuronCount": 64,
            "neurons": [
                {
                    "incomingWeights": [-0.036420, -0.046931, 0.168473, -0.087743, 0.365768, -0.104979],
                    "bias": 0.015296
                },
                {
                    "incomingWeights": [0.229392, -0.034760, -0.098569, -0.106152, 0.054958, 0.243492],
                    "bias": 0.169920
                },
                {
                    "incomingWeights": [0.091668, 0.056053, -0.171109, -0.226886, 0.069344, -0.340946],
                    "bias": 0.158208
                },
                {
                    "incomingWeights": [0.034809, -0.091581, -0.193364, 0.178727, -0.145511, 0.458539],
                    "bias": -0.062013
                },
                {
                    "incomingWeights": [0.135891, -0.072158, -0.314847, 0.071971, -0.300717, 0.255734],
                    "bias": -0.086463
                },
                {
                    "incomingWeights": [0.193754, -0.040161, -0.246287, -0.124429, 0.053613, 0.259339],
                    "bias": 0.121979
                },
                {
                    "incomingWeights": [-0.199897, -0.007457, -0.050703, 0.141469, 0.111872, 0.453902],
                    "bias": 0.310330
                },
                {
                    "incomingWeights": [-0.193142, -0.028350, -0.118707, 0.138176, -0.220270, 0.163686],
                    "bias": 0.041606
                },
                {
                    "incomingWeights": [0.015687, -0.040959, 0.122117, -0.151055, -0.062385, -0.235958],
                    "bias": 0.235975
                },
                {
                    "incomingWeights": [-0.033003, -0.034380, -0.246879, 0.012603, 0.614849, 0.153934],
                    "bias": -0.194600
                },
                {
                    "incomingWeights": [0.154499, 0.030679, -0.283202, -0.150629, -0.242191, -0.014245],
                    "bias": -0.130338
                },
                {
                    "incomingWeights": [0.179301, 0.046822, 0.284659, -0.163557, 0.037493, -0.323108],
                    "bias": 0.167723
                },
                {
                    "incomingWeights": [0.211745, -0.006291, 0.127390, -0.370096, 0.498153, -0.318822],
                    "bias": 0.129425
                },
                {
                    "incomingWeights": [-0.148637, -0.092332, 0.089593, -0.041488, -0.262931, -0.037641],
                    "bias": 0.318967
                },
                {
                    "incomingWeights": [-0.074595, 0.165520, -0.223408, 0.061897, 0.027939, 0.184337],
                    "bias": 0.142903
                },
                {
                    "incomingWeights": [0.167037, 0.149057, 0.187822, 0.079515, -0.192945, 0.320889],
                    "bias": -0.274111
                },
                {
                    "incomingWeights": [0.042208, -0.051019, -0.035430, -0.014191, 0.141920, -0.180001],
                    "bias": 0.411827
                },
                {
                    "incomingWeights": [-0.183788, -0.095842, -0.076563, 0.176131, -0.092355, 0.030559],
                    "bias": -0.063871
                },
                {
                    "incomingWeights": [0.120401, -0.046355, -0.075085, 0.037126, -0.319144, 0.224312],
                    "bias": 0.211065
                },
                {
                    "incomingWeights": [-0.027963, 0.025792, 0.016114, 0.154774, -0.253326, -0.070637],
                    "bias": -0.121065
                },
                {
                    "incomingWeights": [-0.165205, -0.254409, 0.266201, -0.053655, 0.067085, -0.040280],
                    "bias": -0.223473
                },
                {
                    "incomingWeights": [-0.012295, -0.145634, -0.261347, -0.010116, -0.192679, 0.011259],
                    "bias": -0.225532
                },
                {
                    "incomingWeights": [0.116337, -0.059428, -0.066808, 0.055595, -0.045826, 0.110034],
                    "bias": 0.192113
                },
                {
                    "incomingWeights": [0.074991, 0.155046, -0.286281, -0.241551, 0.079525, -0.186187],
                    "bias": 0.039085
                },
                {
                    "incomingWeights": [-0.210375, -0.089698, -0.126152, 0.041365, -0.209029, 0.168782],
                    "bias": 0.423135
                },
                {
                    "incomingWeights": [0.073636, 0.005453, -0.161232, -0.264368, -0.136061, -0.433145],
                    "bias": 0.206051
                },
                {
                    "incomingWeights": [-0.003815, -0.030237, 0.203790, 0.125403, 0.282409, 0.236731],
                    "bias": 0.139963
                },
                {
                    "incomingWeights": [0.113309, -0.140652, -0.301892, -0.083358, 0.223505, -0.239165],
                    "bias": -0.178626
                },
                {
                    "incomingWeights": [0.004472, 0.102854, 0.132004, -0.180328, 0.393347, -0.227191],
                    "bias": 0.123380
                },
                {
                    "incomingWeights": [0.065264, 0.109094, -0.171775, -0.140499, 0.006187, -0.259558],
                    "bias": 0.087394
                },
                {
                    "incomingWeights": [-0.135934, 0.008099, -0.020286, -0.246742, 0.097082, -0.333975],
                    "bias": -0.038429
                },
                {
                    "incomingWeights": [0.135319, -0.077974, 0.030060, -0.302035, -0.435406, -0.028967],
                    "bias": 0.315901
                },
                {
                    "incomingWeights": [-0.033467, -0.058070, 0.316292, 0.077194, 0.477198, 0.056048],
                    "bias": -0.098256
                },
                {
                    "incomingWeights": [-0.088977, -0.012661, 0.263332, 0.028291, 0.446076, 0.056453],
                    "bias": -0.010170
                },
                {
                    "incomingWeights": [-0.215756, 0.156920, -0.054899, -0.213452, 0.318022, -0.207787],
                    "bias": -0.126686
                },
                {
                    "incomingWeights": [0.177199, 0.195262, 0.060986, -0.354515, 0.046178, -0.221457],
                    "bias": 0.149658
                },
                {
                    "incomingWeights": [0.045625, 0.019114, 0.139490, 0.248134, 0.278785, 0.286319],
                    "bias": -0.031112
                },
                {
                    "incomingWeights": [-0.153458, 0.220980, 0.007196, 0.085779, -0.387780, -0.031203],
                    "bias": 0.167657
                },
                {
                    "incomingWeights": [0.051472, 0.163045, -0.027147, -0.175386, -0.228863, -0.181486],
                    "bias": 0.052433
                },
                {
                    "incomingWeights": [-0.029343, -0.084487, 0.057910, 0.053408, -0.132415, -0.113638],
                    "bias": 0.359047
                },
                {
                    "incomingWeights": [-0.190844, -0.025768, -0.100924, -0.193817, -0.124251, -0.512386],
                    "bias": 0.299944
                },
                {
                    "incomingWeights": [0.245473, -0.087414, 0.085010, 0.135190, 0.082243, -0.019983],
                    "bias": -0.196867
                },
                {
                    "incomingWeights": [-0.033134, -0.229135, 0.309567, 0.114208, -0.087643, 0.279853],
                    "bias": -0.169667
                },
                {
                    "incomingWeights": [-0.157252, -0.075845, -0.240730, 0.023542, -0.116479, -0.120637],
                    "bias": -0.165642
                },
                {
                    "incomingWeights": [-0.204938, 0.072762, -0.277847, -0.008639, -0.071271, -0.038695],
                    "bias": -0.207086
                },
                {
                    "incomingWeights": [0.071279, -0.072407, 0.171717, -0.023636, 0.262180, 0.177367],
                    "bias": -0.113663
                },
                {
                    "incomingWeights": [0.021023, 0.151405, -0.323553, -0.224016, -0.136085, -0.133907],
                    "bias": -0.321660
                },
                {
                    "incomingWeights": [-0.152631, -0.141751, -0.198909, 0.136104, -0.248065, 0.015455],
                    "bias": 0.089410
                },
                {
                    "incomingWeights": [-0.100704, -0.054902, 0.020299, -0.136801, -0.004432, -0.304052],
                    "bias": 0.103474
                },
                {
                    "incomingWeights": [0.105965, -0.030878, -0.348869, 0.166744, -0.247158, 0.053199],
                    "bias": -0.178288
                },
                {
                    "incomingWeights": [-0.182987, -0.123224, -0.213876, 0.184413, -0.136459, -0.085453],
                    "bias": 0.311871
                },
                {
                    "incomingWeights": [-0.007505, 0.043302, 0.239389, -0.056529, 0.363586, 0.157829],
                    "bias": 0.157186
                },
                {
                    "incomingWeights": [-0.069404, -0.020344, 0.255528, 0.297522, 0.257761, 0.081456],
                    "bias": 0.138771
                },
                {
                    "incomingWeights": [-0.155380, -0.050094, 0.267312, 0.230420, -0.027753, 0.241394],
                    "bias": -0.428918
                },
                {
                    "incomingWeights": [-0.023813, -0.015768, -0.295986, -0.020071, -0.322027, -0.122870],
                    "bias": -0.141870
                },
                {
                    "incomingWeights": [-0.017104, -0.006830, -0.198490, -0.259359, -0.247152, 0.023622],
                    "bias": -0.208911
                },
                {
                    "incomingWeights": [-0.127768, 0.099643, -0.062176, -0.168056, -0.343693, -0.035477],
                    "bias": 0.162438
                },
                {
                    "incomingWeights": [-0.090932, 0.056317, 0.233310, 0.040404, 0.361271, -0.134411],
                    "bias": 0.018762
                },
                {
                    "incomingWeights": [-0.094048, 0.009167, 0.096550, 0.128052, 0.217866, -0.025855],
                    "bias": -0.099406
                },
                {
                    "incomingWeights": [-0.015732, 0.014530, -0.088715, 0.252930, 0.211329, 0.284252],
                    "bias": 0.233646
                },
                {
                    "incomingWeights": [-0.047032, -0.222253, -0.189110, 0.197970, -0.321874, 0.123925],
                    "bias": -0.332848
                },
                {
                    "incomingWeights": [-0.311259, -0.054639, 0.260475, 0.036410, 0.009673, -0.339282],
                    "bias": -0.074943
                },
                {
                    "incomingWeights": [-0.274883, -0.003938, -0.098603, 0.047499, -0.174101, 0.240029],
                    "bias": -0.024454
                },
                {
                    "incomingWeights": [-0.058051, -0.037866, 0.112774, 0.118418, 0.458724, -0.103251],
                    "bias": -0.140647
                }
            ]
        },
        {
            "neuronCount": 64,
            "neurons": [
                {
                    "incomingWeights": [-0.059747, 0.116507, -0.150743, -0.042406, 0.378157, 0.055065, 0.053085, 0.178777, -0.090198, -0.089309, 0.230259, 0.089404, -0.211483, -0.392643, -0.055752, -0.110251, 0.096487, 0.078301, -0.021237, -0.025133, -0.041307, 0.207471, -0.208068, 0.237738, -0.163976, -0.023309, 0.376532, 0.193648, -0.231523, 0.050251, 0.202475, -0.393659, 0.300752, 0.212513, 0.000900, 0.162170, 0.351843, -0.363553, 0.174182, -0.502485, -0.127973, -0.169746, -0.075078, 0.318588, 0.401332, -0.020424, 0.243483, 0.010823, 0.165379, 0.234058, -0.116408, -0.268646, -0.105461, 0.064799, 0.304042, 0.376183, -0.318850, 0.091730, 0.283938, -0.259404, 0.141242, -0.214016, -0.038721, -0.157474],
                    "bias": -0.431692
                },
                {
                    "incomingWeights": [-0.295257, 0.037895, 0.068261, 0.131065, 0.011822, 0.093033, 0.013113, 0.248958, 0.234803, -0.702775, 0.254041, -0.436504, 0.158161, -0.325777, -0.176550, -0.259987, -0.228269, -0.074019, -0.244920, 0.011150, 0.341453, 0.284212, 0.023100, 0.382611, -0.179135, -0.143656, -0.126703, 0.357251, -0.268964, 0.299309, 0.168483, -0.559885, 0.056619, -0.094581, -0.044449, 0.082637, -0.278320, -0.214841, -0.326337, -0.399585, -0.058855, 0.142796, 0.216967, 0.425552, 0.472648, 0.246871, 0.106115, 0.318723, -0.283756, 0.044248, 0.125911, 0.179373, -0.391629, -0.114410, 0.034627, 0.074712, -0.298620, -0.176214, -0.557588, 0.192568, -0.107889, -0.197894, 0.254115, -0.504124],
                    "bias": 0.153365
                },
                {
                    "incomingWeights": [-0.237256, 0.112674, -0.301810, 0.100384, 0.161960, 0.089680, -0.122468, 0.211958, -0.147679, 0.217195, 0.137139, 0.178006, -0.142887, -0.157095, -0.151678, -0.453870, -0.020567, 0.115354, -0.130506, 0.324007, 0.284570, -0.228879, -0.232807, -0.086753, -0.212086, -0.032091, -0.224618, -0.047931, -0.090584, 0.002323, -0.241623, 0.304828, 0.402064, 0.066561, 0.044368, -0.064328, -0.089264, -0.030658, -0.189986, -0.049994, 0.196619, -0.202708, -0.219570, -0.203640, 0.016676, 0.075692, -0.120416, 0.099932, 0.087274, -0.192866, -0.127546, 0.072269, -0.135122, 0.327808, 0.324434, 0.017037, 0.213371, 0.221517, -0.028204, -0.252064, 0.115134, -0.249445, -0.133904, 0.062644],
                    "bias": -0.048904
                },
                {
                    "incomingWeights": [0.210847, -0.198095, 0.024017, -0.069897, -0.267449, 0.023870, 0.018533, 0.341568, 0.238748, -0.065692, -0.231184, 0.194720, 0.201912, 0.217245, -0.004515, 0.009593, -0.284393, 0.068395, -0.008117, 0.141199, -0.176033, 0.089252, -0.195922, 0.005599, -0.142000, 0.106428, 0.182946, -0.229297, -0.015373, 0.176101, 0.125911, 0.251817, 0.231631, 0.187969, -0.279284, 0.065735, -0.023752, -0.284150, -0.031975, 0.192055, 0.105193, -0.158400, 0.342623, -0.179649, 0.054182, -0.021493, 0.107504, 0.068747, -0.142892, 0.239701, 0.001822, 0.232213, -0.110474, 0.325886, -0.070052, 0.189493, 0.018842, 0.092855, -0.009576, 0.147679, 0.097897, -0.208305, -0.194358, 0.051158],
                    "bias": -0.066741
                },
                {
                    "incomingWeights": [-0.015651, 0.221468, 0.097516, -0.065986, 0.061326, -0.011747, -0.008046, 0.059315, 0.022587, -0.302845, 0.218521, -0.111059, -0.043362, -0.018023, 0.089783, -0.103893, -0.172200, 0.130616, -0.108050, 0.179660, 0.040741, -0.034510, 0.368309, -0.139531, 0.098742, -0.232012, -0.104207, -0.216994, 0.157291, -0.057788, -0.183648, 0.366700, -0.723684, -0.449253, -0.012294, 0.058901, -0.243927, 0.243546, 0.125605, 0.366260, 0.230337, 0.348228, -0.055688, 0.218883, -0.256444, -0.079748, 0.203706, -0.121285, 0.197829, 0.268989, 0.185532, -0.116973, -0.006863, 0.285496, 0.208329, -0.150889, -0.212383, -0.130421, -0.136682, -0.108044, 0.068878, 0.087101, -0.050112, -0.020124],
                    "bias": -0.071014
                },
                {
                    "incomingWeights": [0.153111, 0.096891, 0.130044, -0.284857, -0.245188, 0.096904, -0.048258, 0.056840, 0.216234, -0.213387, -0.066547, -0.094227, 0.186270, -0.208672, 0.115207, -0.283253, 0.062222, 0.270908, -0.025392, -0.068416, 0.083210, 0.010071, 0.094849, 0.118965, -0.005358, 0.199617, -0.328298, -0.242175, 0.261611, 0.082493, 0.036216, -0.039360, -0.030333, -0.262482, 0.178448, 0.066468, 0.152481, -0.046239, 0.300601, 0.092504, 0.083758, 0.377329, 0.090551, 0.237418, -0.272739, -0.188006, -0.226923, 0.147035, -0.003718, -0.416517, 0.027019, -0.220078, 0.024339, 0.105691, 0.209803, 0.289172, -0.205735, 0.240323, 0.189850, -0.369254, -0.157228, 0.105654, -0.000079, -0.165666],
                    "bias": -0.143941
                },
                {
                    "incomingWeights": [0.278464, 0.292827, -0.058377, -0.196884, 0.245761, 0.274047, 0.289567, -0.182400, 0.213425, -0.067930, -0.233191, -0.020881, -0.011746, -0.061506, 0.301247, 0.279562, 0.076708, 0.175725, -0.083647, 0.027483, 0.187258, -0.236113, 0.387457, -0.147402, -0.181971, -0.273994, 0.104117, -0.200499, 0.076350, -0.178811, 0.241691, -0.224678, 0.144500, -0.028643, -0.172235, 0.016775, -0.107046, 0.163099, -0.190629, -0.062624, -0.078727, -0.040174, 0.328339, 0.212554, -0.125948, -0.029627, 0.178992, 0.162136, -0.267170, -0.042400, 0.069014, 0.043769, -0.180637, -0.092954, 0.065541, -0.067036, 0.109168, 0.256322, 0.124230, 0.057234, -0.105653, -0.212566, 0.317883, -0.135824],
                    "bias": -0.161556
                },
                {
                    "incomingWeights": [0.045725, 0.202170, -0.200692, 0.038015, 0.228353, -0.100611, -0.403517, -0.083126, 0.203506, 0.119140, -0.111428, -0.506916, -0.017691, 0.149312, 0.134305, -0.035530, -0.027183, 0.130564, -0.073507, -0.112964, 0.182519, -0.152605, 0.007857, 0.283139, -0.248460, -0.112046, -0.151717, 0.183856, 0.071476, 0.203338, 0.035482, -0.058527, -0.090042, -0.277780, -0.224167, 0.482202, -0.350927, -0.021988, 0.057805, 0.098422, -0.174722, -0.129603, 0.062583, 0.077991, -0.137780, -0.037242, 0.058824, 0.229778, -0.219138, -0.063093, -0.192041, 0.006870, 0.053782, -0.322547, 0.256214, 0.077579, -0.220359, -0.423876, -0.097738, -0.305931, 0.288759, -0.256211, 0.304108, -0.229931],
                    "bias": -0.093913
                },
                {
                    "incomingWeights": [0.313948, -0.005727, -0.266710, 0.059654, 0.210050, -0.007621, 0.089148, -0.178967, 0.133777, -0.163158, -0.086300, -0.087607, -0.036716, -0.244460, 0.081930, -0.153617, -0.293761, 0.101949, 0.145091, 0.074359, 0.022023, -0.237239, -0.097544, 0.162686, 0.130411, 0.005607, 0.017590, 0.118668, -0.151579, 0.119878, -0.131735, 0.006279, -0.250193, 0.066582, -0.171775, 0.031017, 0.192043, 0.129220, -0.190816, 0.230121, 0.303863, -0.000456, -0.037048, 0.196156, 0.078901, 0.017228, 0.103364, 0.097746, 0.222844, 0.240556, -0.270916, 0.191940, 0.188086, 0.192512, 0.103518, -0.219923, 0.055994, -0.180356, -0.282066, 0.153404, 0.218032, -0.056549, 0.037261, -0.179200],
                    "bias": -0.171341
                },
                {
                    "incomingWeights": [-0.072877, 0.017453, -0.008056, 0.139981, 0.142542, 0.012506, -0.151167, 0.040441, 0.186604, -0.139048, 0.014380, 0.431757, 0.159218, -0.268163, -0.105255, -0.333507, -0.296682, 0.194339, -0.197040, -0.107364, -0.046108, 0.039224, 0.339971, 0.114802, -0.324313, 0.045571, 0.078480, 0.324799, 0.108802, 0.043652, 0.328842, 0.105160, 0.279895, 0.349721, -0.235634, 0.030966, 0.107056, -0.229918, 0.146683, -0.161409, -0.174537, -0.205670, 0.121885, 0.055196, -0.325084, 0.088359, -0.111612, -0.226739, 0.065585, -0.048273, 0.138701, -0.166291, 0.148187, 0.287615, 0.146280, 0.180344, 0.190886, 0.041531, -0.011736, -0.201589, 0.101775, 0.168575, 0.073091, 0.116853],
                    "bias": 0.151019
                },
                {
                    "incomingWeights": [0.238700, 0.096161, -0.186469, -0.104377, 0.099203, 0.134548, 0.239628, -0.089108, -0.313946, -0.584917, 0.177261, 0.082345, -0.501358, -0.170932, 0.153391, 0.103501, 0.061089, 0.053917, 0.054902, 0.016447, 0.148753, -0.235034, 0.078043, 0.372021, 0.103528, -0.071551, 0.156186, 0.358009, -0.290020, -0.097872, -0.186644, -0.272257, 0.020084, 0.330929, -0.040889, 0.251090, -0.430959, -0.166497, 0.165855, -0.003272, 0.245472, -0.457789, -0.251253, -0.110948, 0.325641, -0.758801, 0.139139, 0.239310, 0.077108, 0.127328, -0.266981, -0.272629, -0.285361, -0.602783, 0.256387, -0.195217, 0.263969, 0.232023, 0.070438, -0.203830, -0.024086, 0.092501, 0.274987, -0.048673],
                    "bias": -0.187952
                },
                {
                    "incomingWeights": [-0.241164, -0.238378, -0.149474, -0.218874, -0.258732, 0.123406, -0.027577, 0.116298, -0.184721, -0.023184, 0.112465, 0.087701, 0.032017, 0.081020, -0.010981, 0.197485, -0.189236, -0.247378, -0.229194, 0.218900, 0.292826, 0.021065, -0.544219, 0.032465, 0.061568, 0.250229, 0.029883, 0.115434, 0.082651, 0.013503, 0.138209, 0.210393, -0.229673, -0.111467, -0.118946, -0.105018, -0.093316, -0.125089, -0.194935, 0.010066, -0.124327, -0.179497, -0.200251, -0.054073, 0.130668, 0.081328, 0.077008, 0.085955, -0.146017, 0.066109, 0.158703, 0.156929, -0.055332, 0.445949, -0.244928, -0.197683, 0.253489, -0.014025, -0.352908, -0.109337, -0.333814, 0.089726, 0.141181, -0.105409],
                    "bias": -0.003001
                },
                {
                    "incomingWeights": [0.179887, -0.314574, -0.129491, -0.046532, 0.049539, -0.103296, -0.334673, -0.214755, 0.346617, -0.193150, -0.221053, -0.254298, 0.206555, 0.093657, -0.011689, 0.122405, 0.312831, 0.025872, -0.249466, -0.047501, 0.229975, 0.334030, -0.209871, 0.117979, 0.072758, 0.204351, -0.198004, 0.089704, 0.113250, 0.225327, -0.069675, 0.157658, 0.165460, 0.165369, 0.307401, 0.109463, -0.147835, -0.000764, 0.138702, 0.053401, 0.225836, 0.512917, -0.235200, 0.068137, 0.240793, 0.058557, -0.265322, -0.231325, -0.098974, -0.309975, -0.218317, -0.003806, 0.118405, 0.028368, 0.254376, -0.280926, 0.130271, 0.246327, -0.075247, 0.003315, -0.293259, -0.018594, -0.263928, 0.007271],
                    "bias": 0.244639
                },
                {
                    "incomingWeights": [-0.098467, -0.130596, -0.127709, -0.200896, -0.263464, -0.035835, 0.124937, -0.190139, -0.064834, -0.069160, -0.178618, -0.233177, 0.192260, -0.292321, -0.241308, -0.267526, 0.097063, -0.065851, 0.243529, -0.205163, 0.017996, 0.050961, -0.295210, -0.189027, 0.031302, -0.103503, -0.172855, 0.030760, -0.214247, -0.243257, -0.023013, 0.222790, -0.166127, -0.294866, 0.180471, 0.178730, -0.282850, -0.058052, -0.087794, -0.148555, -0.163764, -0.178979, -0.297680, 0.285753, 0.251132, -0.222453, -0.170665, 0.227594, 0.164301, 0.208630, 0.052445, 0.039035, 0.254354, -0.069131, -0.281194, 0.166639, -0.098035, -0.082426, 0.059107, -0.190936, -0.269447, 0.210505, -0.243087, -0.154899],
                    "bias": 0.012935
                },
                {
                    "incomingWeights": [0.159220, 0.108935, 0.046264, 0.164082, 0.299119, 0.049886, -0.201214, 0.276743, 0.011562, -0.123391, -0.296983, 0.338363, -0.290856, -0.063308, 0.234979, 0.257396, 0.046200, 0.089238, 0.108463, -0.186494, -0.239864, -0.071862, 0.278871, 0.024586, 0.063178, 0.266567, 0.026907, 0.268631, 0.259806, -0.241809, -0.211455, 0.089270, 0.132030, 0.264227, -0.098639, 0.352512, 0.055650, -0.120383, 0.128503, -0.301807, -0.014520, -0.353769, 0.233094, -0.230156, 0.088762, 0.120949, -0.239566, -0.188572, 0.064981, -0.016652, 0.019518, -0.129803, 0.112564, 0.128582, -0.020451, -0.135060, -0.044359, -0.068250, -0.117479, -0.063861, -0.164631, 0.142180, 0.008032, -0.118875],
                    "bias": -0.098167
                },
                {
                    "incomingWeights": [-0.202155, -0.188535, 0.060171, -0.018527, 0.191438, -0.228031, -0.242836, -0.164004, 0.054589, -0.097226, -0.287800, 0.089188, -0.144268, 0.172401, 0.095850, -0.012808, -0.254836, 0.003702, -0.231274, -0.004623, -0.071657, -0.110441, 0.068806, -0.150880, 0.065854, -0.276448, -0.167216, -0.003913, 0.347490, -0.144551, -0.123301, 0.116421, -0.536492, -0.007807, 0.332027, 0.000100, -0.142214, 0.233398, 0.129204, -0.027837, 0.100881, 0.231348, -0.006153, 0.100365, 0.364640, -0.395224, 0.044655, -0.098078, 0.113471, 0.269458, 0.121643, -0.434858, 0.145371, -0.017259, -0.296937, 0.047468, -0.213079, -0.108598, 0.236752, -0.078447, 0.050006, -0.080596, 0.023300, -0.217450],
                    "bias": -0.237638
                },
                {
                    "incomingWeights": [0.159966, 0.158104, 0.163240, -0.101884, -0.031718, -0.214599, 0.186456, -0.066096, -0.059863, 0.061081, 0.091717, -0.223591, -0.174739, 0.039741, -0.041025, -0.162054, 0.031780, 0.342322, -0.121111, 0.025334, 0.222490, -0.082482, 0.025713, 0.161209, -0.028825, 0.317840, 0.055055, -0.115298, -0.195940, -0.017867, 0.052646, 0.202007, -0.210456, 0.237786, 0.027597, -0.073115, -0.158428, 0.032675, -0.014445, 0.298786, -0.217883, 0.344360, 0.225249, 0.022532, 0.133980, -0.070917, 0.160175, 0.207376, 0.019325, -0.039151, -0.217800, 0.040935, 0.239101, 0.082968, 0.172722, 0.151262, -0.043605, -0.055158, 0.091674, -0.104739, 0.098888, -0.040638, 0.057183, -0.060276],
                    "bias": 0.271480
                },
                {
                    "incomingWeights": [-0.232807, 0.293054, -0.048964, -0.221361, 0.378813, 0.003821, -0.094375, -0.052338, -0.060085, -0.091735, -0.003210, 0.238140, -0.371904, -0.348881, 0.251717, 0.482506, 0.073221, -0.032484, -0.195696, -0.078290, 0.249572, 0.097663, -0.314205, 0.273361, -0.145561, 0.099361, 0.416713, -0.070080, -0.196751, -0.017994, -0.074977, -0.198026, 0.062449, -0.043059, -0.090713, -0.226635, 0.200320, -0.255952, -0.357709, 0.007323, 0.036795, -0.071991, 0.183025, -0.062797, 0.026723, -0.011791, 0.141946, 0.249921, -0.306723, -0.057914, 0.235845, 0.275348, 0.190261, 0.190764, 0.017320, -0.268284, -0.015814, -0.151376, 0.104816, -0.057995, 0.325273, -0.656214, 0.405212, -0.534789],
                    "bias": 0.132239
                },
                {
                    "incomingWeights": [-0.560574, 0.063559, 0.077126, -0.292159, -0.179253, -0.204011, -0.133362, -0.159958, 0.147804, 0.006210, -0.023376, -0.280280, -0.097338, -0.203933, 0.248706, -0.292430, -0.188613, 0.051137, -0.064125, 0.104560, -0.304756, 0.209255, 0.333956, -0.007979, 0.070366, 0.206865, 0.461323, 0.006257, -0.207708, -0.073296, 0.318014, 0.053220, 0.099888, -0.432006, -0.031465, -0.235787, -0.185061, 0.190714, 0.063360, -0.035032, 0.313584, -0.258154, -0.314772, -0.214808, -0.164303, -0.003917, 0.290495, -0.187438, -0.238808, 0.173253, 0.037628, -0.273577, 0.044784, 0.677341, 0.328346, 0.100057, -0.097653, -0.238208, -0.242435, -0.100865, 0.232714, 0.016557, -0.009485, -0.064630],
                    "bias": 0.115978
                },
                {
                    "incomingWeights": [0.252439, -0.291990, 0.060722, -0.265490, -0.218404, 0.134753, -0.182146, -0.128795, 0.052848, 0.115647, 0.030242, -0.202538, 0.130547, 0.192634, 0.343599, -0.600166, -0.052618, 0.069582, -0.077651, 0.504937, 0.099056, 0.002468, -0.062829, -0.066071, 0.270201, -0.064248, 0.151550, -0.253367, -0.019645, -0.216993, -0.050652, -0.248825, -0.191376, -0.129387, 0.119884, -0.006460, 0.014653, 0.225328, -0.284684, -0.052753, 0.097028, -0.096791, 0.107341, 0.260735, 0.027470, 0.164367, -0.385460, -0.154249, 0.205336, 0.048452, 0.031453, 0.131216, -0.112253, 0.009652, 0.092396, -0.299000, 0.223462, 0.030259, 0.178784, 0.263432, 0.273408, -0.114982, 0.034225, -0.251040],
                    "bias": -0.249212
                },
                {
                    "incomingWeights": [-0.099305, -0.199612, -0.219770, -0.284016, 0.029066, 0.328432, -0.560948, -0.109963, 0.253212, 0.111693, 0.062891, 0.297046, -0.210102, 0.073347, -0.236633, -0.633022, -0.203905, -0.300615, -0.005286, -0.045669, 0.032212, 0.098391, -0.196298, -0.140185, -0.222947, 0.183392, -0.268550, -0.035959, -0.016026, -0.071584, 0.209181, 0.153587, -0.260321, -0.120360, 0.145201, 0.075198, -0.168046, -0.027630, -0.056376, -0.297357, -0.098168, 0.361710, -0.133062, 0.109730, 0.021424, 0.036436, 0.302724, 0.023264, -0.214223, 0.297545, -0.282986, -0.106381, 0.128376, 0.101429, 0.286756, 0.003502, 0.158362, 0.341426, 0.086800, -0.311041, 0.210175, -0.185956, -0.249623, -0.092312],
                    "bias": 0.019912
                },
                {
                    "incomingWeights": [0.151151, -0.001872, -0.049742, 0.344939, -0.004405, 0.285010, -0.259453, 0.069095, 0.262642, -0.211305, 0.158297, -0.169538, -0.239314, -0.181035, -0.150948, -0.315870, 0.070982, -0.280056, -0.235849, 0.138311, -0.160706, -0.153913, -0.327195, 0.130047, -0.229590, -0.011297, -0.168272, -0.079909, -0.266740, 0.015731, 0.253723, -0.185817, -0.116363, -0.007086, -0.109396, 0.165724, 0.080654, -0.108187, -0.019894, 0.121770, 0.068089, -0.548651, 0.154672, 0.328776, 0.394021, 0.040756, -0.132640, 0.120774, -0.261542, 0.230689, 0.207096, -0.184574, -0.171557, -0.030236, -0.057401, 0.259996, 0.302805, -0.098379, 0.205428, -0.100454, -0.211594, 0.093337, 0.281829, -0.242663],
                    "bias": 0.171713
                },
                {
                    "incomingWeights": [-0.139051, 0.207820, 0.237298, 0.249664, 0.052307, -0.170649, 0.015421, 0.094003, 0.320488, -0.203818, -0.126813, 0.007559, 0.198923, 0.107552, 0.101374, -0.068823, 0.051879, -0.146708, -0.265532, 0.112370, -0.006970, -0.038481, -0.033987, 0.203524, 0.214184, 0.017900, -0.326867, 0.127815, -0.189549, -0.248883, -0.143335, -0.182276, 0.157686, 0.084883, 0.017943, 0.236286, 0.012916, -0.207833, -0.118804, -0.006109, 0.281558, 0.256209, -0.170219, 0.110541, -0.126507, -0.131599, 0.183876, -0.089107, 0.222010, 0.179377, -0.105349, 0.230764, -0.176899, -0.074031, -0.339341, 0.044793, -0.068422, 0.251893, 0.115107, 0.049150, -0.208804, -0.125478, 0.103121, 0.052849],
                    "bias": 0.213935
                },
                {
                    "incomingWeights": [0.194086, -0.010604, 0.114155, 0.293067, -0.063548, 0.103553, -0.109909, 0.116745, -0.211108, -0.063999, -0.228863, 0.168447, 0.046629, -0.108428, -0.084812, -0.160298, 0.169071, -0.202657, -0.099192, 0.206769, -0.095940, -0.269294, 0.290041, 0.169173, 0.172534, 0.006523, 0.097290, -0.338801, 0.065724, 0.012358, 0.095272, -0.085053, -0.234316, 0.256844, -0.042378, -0.034240, 0.157952, 0.081645, -0.262036, 0.173104, 0.191347, -0.015509, -0.048765, 0.055978, 0.035795, 0.170084, -0.055559, 0.088857, -0.211927, 0.242267, -0.008730, 0.065900, 0.119219, 0.247732, -0.218195, 0.074222, 0.161561, 0.217820, 0.071317, -0.162872, 0.208184, -0.029390, 0.067134, 0.189378],
                    "bias": -0.206110
                },
                {
                    "incomingWeights": [0.161667, -0.120444, -0.272001, 0.251692, -0.094964, -0.095658, -0.259343, 0.045110, -0.226275, 0.002322, -0.115582, -0.047827, -0.211818, 0.047454, 0.006786, -0.109004, 0.195606, -0.254792, 0.132807, 0.155586, -0.021817, 0.058534, -0.194930, -0.023863, 0.239500, -0.125895, 0.133525, 0.049563, 0.180615, -0.009571, -0.041200, 0.082953, -0.059398, -0.069613, -0.282686, -0.188194, 0.182051, 0.042938, -0.095639, 0.101570, -0.009693, 0.038554, -0.100953, 0.016990, 0.088376, -0.070938, 0.061510, 0.033277, 0.027875, 0.241417, 0.082727, 0.266818, 0.181106, -0.157316, 0.157600, 0.137658, 0.115616, -0.054815, 0.269228, -0.050629, -0.032359, -0.099012, -0.056848, -0.174172],
                    "bias": -0.232113
                },
                {
                    "incomingWeights": [0.087090, 0.123707, -0.203796, -0.332194, -0.154163, -0.155718, -0.111076, 0.163552, -0.035395, 0.112300, -0.486623, -0.280946, -0.113830, -0.128151, 0.120879, -0.369494, -0.053833, 0.257555, -0.221360, 0.262164, -0.221173, -0.169441, -0.055894, 0.117470, -0.018169, -0.290934, -0.059939, 0.124573, 0.037259, -0.010921, 0.185293, 0.204912, -0.066110, 0.224215, 0.069756, -0.016657, -0.145884, -0.046454, -0.237542, 0.256515, -0.274955, 0.102467, -0.379515, -0.196081, 0.181983, 0.053785, -0.282802, 0.294454, 0.041481, -0.198552, 0.096001, 0.326438, -0.135597, -0.089658, -0.258015, -0.217898, 0.188854, -0.125384, -0.061085, 0.050826, -0.072312, 0.169423, -0.320826, 0.126636],
                    "bias": 0.277110
                },
                {
                    "incomingWeights": [-0.242885, 0.105593, 0.181052, -0.163676, 0.021253, 0.260989, -0.317813, 0.070430, -0.052221, -0.265131, 0.088075, 0.486186, -0.581157, -0.034020, -0.163774, -0.074849, 0.118413, -0.324195, 0.114251, -0.161067, 0.111734, -0.034795, 0.009668, 0.296290, -0.168792, 0.216541, -0.316184, -0.046365, -0.539379, 0.008734, 0.232499, -0.258696, -0.370779, 0.445818, -0.300237, -0.057406, 0.429449, -0.118882, 0.313902, -0.122330, 0.039109, 0.025104, 0.019823, -0.049250, 0.111478, -0.353735, -0.111241, 0.219909, 0.259706, 0.059815, 0.158013, 0.059915, -0.135905, 0.651655, 0.102381, 0.170080, -0.093754, -0.273423, 0.413250, -0.212788, -0.065200, -0.014059, 0.132547, -0.430034],
                    "bias": 0.075780
                },
                {
                    "incomingWeights": [0.161222, 0.210431, 0.125338, 0.001644, 0.109920, 0.046582, 0.129032, 0.048117, 0.065827, -0.007988, 0.052855, -0.153460, -0.052208, 0.155196, -0.050716, -0.043366, -0.185773, -0.026307, 0.228004, 0.075911, 0.013773, 0.037389, 0.076916, 0.206459, 0.071356, 0.128901, 0.028564, 0.166938, 0.145072, -0.055974, -0.296825, -0.160142, 0.039036, 0.021708, 0.226191, -0.032887, 0.018051, -0.074648, -0.066800, 0.201059, 0.250154, 0.051555, -0.256149, -0.027815, -0.182681, 0.035180, 0.182108, -0.159344, 0.023286, 0.248979, 0.213368, -0.092815, 0.057468, -0.251455, -0.050745, 0.076693, -0.046599, -0.002415, -0.072614, 0.063548, -0.060126, -0.280305, -0.027225, -0.231219],
                    "bias": -0.019182
                },
                {
                    "incomingWeights": [0.265528, -0.037926, 0.020223, 0.078022, 0.122648, 0.314262, 0.101140, 0.119012, -0.023857, 0.338868, -0.231084, 0.125740, 0.129982, 0.085782, -0.031973, -0.151578, 0.282512, -0.152565, 0.180517, -0.342817, 0.086474, 0.105884, -0.347910, 0.177627, -0.069773, 0.190359, 0.188543, 0.275039, 0.016237, -0.201540, 0.092166, 0.120351, 0.268900, 0.269118, -0.068100, 0.373997, -0.039925, -0.242956, 0.009173, 0.091974, -0.297781, 0.058611, -0.332147, -0.101321, -0.206825, -0.176572, -0.088200, -0.140355, 0.200430, 0.226241, -0.184077, -0.094742, 0.074866, -0.174442, -0.083203, 0.043946, 0.273706, -0.067242, 0.171646, 0.244124, 0.209980, 0.286815, -0.148693, 0.067242],
                    "bias": 0.091924
                },
                {
                    "incomingWeights": [-0.178536, -0.221473, -0.331816, -0.030076, -0.169151, 0.063188, 0.035781, -0.202236, 0.311988, 0.415574, -0.307144, -0.125684, 0.127902, -0.185157, -0.001475, 0.003793, 0.198803, -0.020824, -0.042194, -0.045460, 0.197974, 0.053499, -0.063766, -0.032207, -0.056649, -0.140010, -0.013522, -0.039819, 0.029170, -0.450649, 0.148168, -0.125319, 0.180719, -0.120960, -0.107154, 0.020696, -0.189485, -0.033630, -0.444798, 0.217857, 0.036605, 0.155250, -0.233142, -0.061709, -0.096787, -0.106263, 0.282096, 0.036926, -0.186956, 0.138063, -0.098535, 0.447978, 0.195680, 0.059902, -0.728134, -0.313164, 0.065273, 0.049424, 0.182851, -0.090555, -0.067503, 0.128803, 0.280868, 0.259222],
                    "bias": -0.236030
                },
                {
                    "incomingWeights": [0.053793, -0.328460, -0.125412, 0.291194, 0.359429, 0.002392, 0.045016, 0.078755, -0.039691, 0.027250, 0.341442, 0.055780, 0.050009, 0.343784, -0.074189, 0.303426, -0.056551, -0.143266, -0.014749, 0.326152, 0.197603, 0.197354, -0.102901, 0.023983, 0.046852, -0.326584, -0.074512, 0.026572, -0.228285, 0.126110, 0.129689, -0.161298, -0.217335, -0.069940, -0.046108, 0.379710, -0.222187, -0.124564, -0.056455, -0.210905, -0.282890, 0.194877, 0.128880, -0.050553, 0.102909, 0.165308, -0.138113, -0.052357, -0.521592, -0.114516, 0.131152, -0.095596, -0.299566, -0.312990, 0.107625, -0.175985, -0.073561, -0.572158, -0.107329, 0.056170, -0.038886, 0.069658, 0.240520, -0.201741],
                    "bias": 0.321540
                },
                {
                    "incomingWeights": [-0.017377, -0.158965, 0.149396, -0.018631, -0.147335, -0.084749, 0.061232, -0.345378, 0.149705, -0.062568, 0.097776, 0.045019, -0.502112, -0.339709, -0.091014, -0.106945, 0.008506, 0.146960, -0.056220, 0.301188, 0.124391, 0.288920, -0.299946, 0.018179, -0.338947, -0.026692, -0.232119, 0.032775, -0.649093, -0.218114, -0.484153, -0.064345, -0.024744, 0.000277, -0.338917, -0.174120, -0.401813, 0.159771, -0.139895, 0.223954, 0.191831, -0.066111, 0.128918, 0.091136, -0.239236, 0.341741, 0.219396, -0.035082, -0.077432, 0.261939, -0.081043, 0.486824, -0.064809, 0.207855, -0.088077, -0.098095, -0.298117, -0.383802, -0.174953, 0.032249, 0.176970, -0.151815, -0.509669, 0.048876],
                    "bias": 0.233520
                },
                {
                    "incomingWeights": [0.090248, 0.135526, 0.044545, -0.021868, 0.170917, 0.168278, 0.123105, 0.136139, 0.602013, -0.400789, -0.216253, -0.091108, 0.171973, -0.015717, 0.124563, 0.394633, -0.367737, -0.135489, 0.031083, 0.059646, 0.083033, 0.090603, 0.029282, -0.037607, 0.266653, -0.197459, 0.160967, 0.230289, 0.011653, -0.123960, 0.241936, -0.193509, -0.495972, -0.475067, 0.366185, -0.042448, -0.289728, -0.007892, 0.263916, -0.243888, -0.065797, 0.226330, 0.073020, -0.216178, 0.321424, -0.119386, -0.046099, 0.189313, -0.224970, 0.290707, -0.141203, -0.196845, -0.326454, -0.255496, 0.097079, -0.081900, -0.175731, 0.023508, -0.127333, 0.013311, 0.295384, -0.027788, -0.260250, -0.354380],
                    "bias": -0.149662
                },
                {
                    "incomingWeights": [0.136448, -0.083605, 0.126222, 0.004452, 0.051932, 0.219966, -0.146787, 0.084640, -0.010257, -0.008871, 0.175416, -0.200381, -0.286154, 0.151463, 0.020059, 0.108193, 0.148732, 0.157747, 0.160181, -0.106417, -0.031246, 0.068255, -0.294432, 0.148806, 0.024967, 0.090633, 0.087497, -0.175319, -0.043005, 0.176542, 0.095321, -0.023537, 0.051752, -0.055114, 0.067880, 0.205944, -0.350626, -0.050438, -0.216181, -0.056926, -0.299407, -0.013433, 0.182881, -0.258495, -0.243939, -0.181041, 0.071979, 0.110808, -0.231693, 0.248913, 0.101643, -0.088115, -0.128847, -0.095739, 0.167365, 0.100132, -0.232887, 0.254204, 0.225632, -0.322483, 0.012385, -0.016802, 0.066699, 0.049756],
                    "bias": -0.136925
                },
                {
                    "incomingWeights": [-0.074081, 0.050117, 0.272142, 0.254883, -0.091834, 0.072163, -0.300109, -0.101324, 0.306286, 0.101652, -0.061727, -0.229295, -0.212760, 0.131731, 0.415462, -0.337747, -0.238576, 0.189504, -0.129905, 0.110245, 0.053515, 0.254494, -0.221887, 0.238073, -0.252820, 0.300766, 0.083061, -0.276093, -0.319459, -0.155081, -0.152644, 0.217740, -0.390485, -0.445346, 0.284033, -0.156436, -0.017813, 0.032389, 0.099428, -0.025377, -0.078586, 0.167082, -0.079573, 0.064263, 0.211983, 0.123879, 0.028971, 0.085117, 0.206733, 0.005038, -0.128244, -0.369473, 0.424354, 0.286985, -0.181967, -0.239626, -0.169843, -0.329337, -0.179906, 0.302627, 0.067014, 0.015969, 0.110001, -0.013821],
                    "bias": 0.230477
                },
                {
                    "incomingWeights": [0.241488, -0.110193, -0.036577, -0.044487, 0.087626, -0.491673, -0.223871, -0.058756, -0.244657, -0.048208, -0.154636, -0.136776, 0.145856, 0.014458, -0.119866, 0.291551, -0.110488, -0.160952, -0.234479, 0.005594, -0.015265, -0.084130, -0.072500, -0.141615, -0.160308, 0.248245, -0.177815, -0.154116, -0.079638, 0.219878, -0.135146, 0.109871, -0.205855, 0.097475, -0.222271, 0.058253, -0.003304, 0.056215, -0.278417, 0.157548, 0.237675, -0.221389, 0.016906, -0.096883, 0.223461, -0.278349, -0.366747, -0.142920, 0.160379, -0.003000, -0.126444, 0.004492, 0.191094, -0.072905, 0.206408, 0.133967, 0.013529, -0.203052, 0.096987, 0.083350, 0.134885, 0.001413, 0.088463, -0.110768],
                    "bias": 0.087659
                },
                {
                    "incomingWeights": [0.014244, 0.248773, -0.007581, 0.087696, 0.187413, 0.005629, -0.075553, 0.113869, -0.083232, -0.119484, -0.208698, -0.344012, 0.164356, 0.194279, 0.174476, -0.021166, 0.135999, -0.005392, 0.198535, 0.034960, 0.176491, 0.150312, 0.060428, -0.053745, -0.273652, -0.266616, -0.432105, 0.099882, -0.040554, 0.028522, 0.236449, -0.131854, -0.263328, 0.152523, -0.033093, -0.100173, -0.156318, 0.188907, -0.079254, 0.270618, 0.192367, 0.062301, 0.086128, -0.260565, -0.430068, -0.174196, -0.034580, 0.045844, 0.118877, -0.254544, -0.172588, 0.315069, -0.210017, 0.044898, -0.172920, 0.132690, -0.369002, -0.245287, -0.128887, 0.093010, -0.101625, -0.246289, -0.174060, 0.155337],
                    "bias": 0.191149
                },
                {
                    "incomingWeights": [0.093914, 0.407172, 0.272132, 0.011057, 0.073761, -0.140969, 0.123876, -0.142989, 0.126423, 0.136249, 0.344555, 0.087993, 0.285260, -0.101026, -0.170814, -0.203444, -0.187844, 0.017779, 0.020368, 0.356388, -0.136672, -0.269152, 0.091181, -0.149614, -0.174745, -0.089890, -0.122587, 0.012307, -0.096903, 0.030836, 0.189734, 0.064760, 0.050383, 0.092457, 0.183000, -0.197792, 0.097751, -0.023902, -0.197051, -0.037843, -0.122350, -0.031613, -0.161925, 0.174486, 0.038731, -0.049580, 0.128118, -0.005960, 0.038624, -0.236274, 0.366031, 0.085347, -0.180670, 0.111885, -0.252655, -0.097321, -0.315928, 0.003940, -0.038245, 0.096606, 0.153027, 0.014010, -0.085077, 0.017895],
                    "bias": -0.144641
                },
                {
                    "incomingWeights": [0.184575, -0.030966, 0.152044, 0.245826, 0.242516, -0.013693, -0.231008, 0.138292, -0.159483, 0.027914, -0.313822, -0.190690, 0.276431, 0.042737, -0.224436, 0.045148, -0.200548, 0.013247, 0.252475, -0.107156, 0.090070, -0.255040, -0.104304, -0.128880, -0.129517, -0.346603, 0.152009, 0.146940, 0.207887, 0.077016, 0.070814, 0.067395, -0.431840, -0.324667, 0.331381, 0.268711, -0.231311, -0.039656, -0.165201, 0.132244, 0.066488, 0.200184, 0.350309, -0.211164, -0.083719, -0.255171, 0.134459, -0.089242, -0.030351, 0.103155, -0.221698, -0.317216, -0.013506, 0.076907, -0.272068, -0.103938, -0.090257, -0.182299, 0.217209, 0.238098, -0.308521, -0.203650, 0.206081, -0.041716],
                    "bias": -0.056486
                },
                {
                    "incomingWeights": [-0.055318, -0.271191, 0.005258, 0.003647, -0.016514, 0.449793, -0.109066, -0.454683, -0.034243, -0.535824, -0.159678, -0.153884, -0.362726, -0.020903, 0.130333, 0.030089, 0.067995, -0.208032, -0.179001, -0.386023, -0.075365, 0.229468, 0.081628, 0.268428, 0.144205, 0.274333, -0.198065, 0.187735, -0.395763, -0.178462, 0.009528, 0.001420, -0.292672, 0.144775, 0.083254, 0.340389, 0.093401, -0.274926, 0.224233, 0.010487, 0.303104, 0.228798, -0.034668, 0.170349, 0.068162, 0.120647, -0.143109, -0.239777, 0.247934, -0.012125, 0.013999, -0.030326, 0.261181, 0.097377, 0.273529, -0.246198, -0.142825, -0.024361, -0.178591, 0.276521, 0.011768, 0.060549, -0.315050, -0.076391],
                    "bias": -0.317056
                },
                {
                    "incomingWeights": [0.197505, -0.072618, -0.210095, 0.044094, 0.041868, 0.092158, -0.092597, -0.130333, -0.155526, -0.003049, 0.065731, -0.630529, 0.089785, 0.174828, -0.211830, -0.080451, -0.107453, 0.005195, -0.093031, -0.617889, 0.097380, 0.329215, -0.112255, -0.107562, 0.015339, 0.034081, -0.054087, -0.202621, -0.183516, 0.217545, 0.304444, -0.011778, -0.096201, -0.105011, 0.178457, 0.124716, -0.064451, 0.209243, 0.105248, -0.327663, -0.214135, 0.304791, 0.209959, 0.166856, 0.135151, 0.170816, 0.082899, -0.071157, -0.024751, -0.264477, 0.244968, 0.261040, 0.117317, -0.120845, -0.099560, -0.066200, -0.052080, -0.202519, -0.037736, -0.110704, -0.447442, -0.110164, 0.239994, -0.033593],
                    "bias": -0.193280
                },
                {
                    "incomingWeights": [0.279509, 0.024072, 0.305755, -0.283023, 0.060276, -0.193298, -0.016627, -0.044485, -0.196223, -0.141365, -0.257140, 0.253511, 0.195067, -0.245031, 0.157299, 0.080860, -0.078101, 0.259415, -0.485771, -0.002235, -0.023272, -0.109674, 0.299613, -0.128646, 0.208832, -0.085355, -0.202295, 0.263507, 0.018575, 0.109191, 0.224071, 0.063443, -0.055141, 0.164647, -0.143426, -0.119775, 0.014002, -0.013198, 0.128938, 0.180120, -0.276205, 0.067073, 0.092732, -0.235159, 0.092812, -0.139567, 0.086014, 0.003933, -0.045767, 0.053283, -0.095522, -0.015339, -0.113531, -0.054245, -0.333989, -0.064394, 0.012229, 0.230478, -0.132125, -0.175712, -0.362557, 0.193793, -0.055960, 0.189614],
                    "bias": 0.165634
                },
                {
                    "incomingWeights": [-0.079071, 0.169226, 0.040466, -0.083787, -0.078456, 0.023455, 0.077131, 0.068301, 0.019167, -0.034942, -0.124440, -0.032461, 0.124679, -0.147939, 0.218962, 0.215509, 0.195314, 0.196239, 0.145180, 0.236329, -0.122014, -0.153317, 0.012949, -0.209248, 0.337584, -0.074561, -0.137907, 0.033488, -0.078113, -0.686782, 0.288465, -0.101314, -0.455848, -0.289684, -0.042631, 0.019146, 0.144675, -0.253668, 0.038005, -0.069996, -0.221941, 0.148449, 0.071523, 0.315092, 0.016754, -0.123027, 0.178357, -0.253548, -0.233004, 0.082695, -0.264805, 0.129133, 0.249381, 0.179426, -0.380392, -0.250410, -0.243501, -0.343893, 0.297669, -0.023842, -0.353904, -0.160007, 0.073168, 0.021873],
                    "bias": 0.015256
                },
                {
                    "incomingWeights": [0.129953, 0.172427, -0.017655, 0.203327, 0.095563, -0.000767, -0.134583, -0.000838, 0.411698, -0.088789, -0.123568, 0.304121, -0.005720, 0.043960, 0.016255, 0.070106, -0.090561, 0.107973, 0.013948, -0.100205, -0.132402, -0.120807, 0.063364, 0.224784, 0.127574, -0.315933, 0.287474, 0.097004, -0.051654, -0.110026, -0.409133, -0.242928, -0.152991, 0.197034, -0.012884, -0.043990, -0.204227, 0.124071, -0.255272, -0.002196, -0.168965, -0.409841, -0.011438, -0.019051, -0.099398, 0.254697, 0.206667, -0.063357, -0.163013, 0.266571, -0.023843, 0.090284, 0.162700, -0.332429, 0.200936, 0.037176, 0.252740, -0.139327, 0.038630, 0.106788, 0.110051, 0.057302, -0.099307, -0.125016],
                    "bias": -0.222713
                },
                {
                    "incomingWeights": [0.119502, 0.139576, 0.144559, 0.159636, -0.115603, -0.194280, -0.233875, 0.000684, 0.155543, 0.088333, 0.015465, 0.031032, 0.017595, 0.132131, 0.138459, -0.223062, 0.142826, 0.176029, -0.052598, -0.072116, 0.198996, -0.214310, -0.002205, 0.008443, 0.157048, -0.268436, 0.041035, -0.074489, -0.172206, 0.004281, 0.107842, 0.242309, -0.057885, -0.230999, -0.071588, 0.025863, -0.114801, 0.274921, -0.166450, 0.106371, -0.057690, 0.104401, 0.101634, -0.020120, -0.043437, 0.076690, 0.231523, -0.036640, -0.159891, -0.140549, 0.172292, 0.162321, 0.022813, 0.000178, -0.169420, 0.288303, -0.163757, -0.081676, 0.195569, 0.215193, 0.062989, -0.182844, -0.002266, -0.166826],
                    "bias": 0.179180
                },
                {
                    "incomingWeights": [-0.077228, -0.027406, 0.166544, -0.327132, 0.066673, 0.185284, 0.131132, 0.194971, -0.183684, -0.106285, 0.047814, -0.069148, -0.255551, 0.220115, 0.367687, 0.025806, -0.179056, 0.255659, -0.201720, 0.149386, 0.226792, 0.092681, 0.234434, -0.230959, 0.179950, -0.302774, -0.062410, -0.453269, 0.229682, -0.111469, -0.135010, 0.066886, -0.136720, -0.043585, -0.150637, -0.297005, 0.021330, 0.159330, 0.206733, -0.041584, 0.041571, 0.233361, 0.167506, 0.207045, 0.119435, 0.067857, 0.389718, 0.271043, -0.059030, -0.234752, -0.235342, -0.190334, 0.193032, 0.006880, -0.227366, -0.167518, 0.153899, -0.111529, -0.232115, 0.234807, 0.100866, -0.205569, -0.195327, -0.040259],
                    "bias": 0.121094
                },
                {
                    "incomingWeights": [0.013861, 0.177074, -0.082973, 0.163814, -0.182441, 0.092179, 0.366977, -0.218621, 0.195704, -0.130841, -0.178218, 0.115916, -0.325874, 0.397614, -0.098678, 0.208726, -0.170572, 0.177620, -0.283469, -0.072369, -0.112091, -0.237075, 0.182866, 0.088586, 0.022183, 0.169348, 0.131132, 0.255269, -0.332969, -0.261813, 0.154258, -0.202682, 0.203980, -0.125780, -0.067108, 0.033476, 0.087795, 0.158729, -0.050341, -0.332915, 0.037705, 0.040745, 0.008577, 0.243425, -0.321939, 0.010446, -0.069640, -0.035398, 0.165111, 0.244322, 0.052373, 0.297339, -0.073290, -0.055966, -0.295727, -0.103806, -0.115249, -0.318111, -0.015612, 0.272195, 0.015548, -0.302730, -0.096152, -0.276311],
                    "bias": -0.101806
                },
                {
                    "incomingWeights": [0.234349, 0.003691, 0.313131, -0.279165, 0.333501, -0.049235, -0.026342, -0.089045, 0.060818, -0.148608, 0.212035, 0.003496, 0.172047, -0.086745, -0.221409, -0.501150, 0.033112, -0.128806, 0.052661, -0.143761, -0.126577, -0.010710, -0.039214, 0.270921, -0.292763, 0.201637, 0.305415, -0.241365, -0.063105, -0.025548, 0.171570, 0.230396, 0.356118, 0.044624, -0.218495, -0.013112, 0.154939, 0.082831, -0.096354, 0.242332, 0.010725, -0.138195, -0.066097, 0.074689, -0.142253, -0.148009, 0.132556, 0.104367, 0.154843, -0.017456, 0.179506, -0.172625, 0.198224, -0.173257, -0.040896, -0.082360, -0.041558, 0.034240, -0.076692, -0.173489, -0.220317, 0.071952, 0.257598, 0.219127],
                    "bias": -0.225089
                },
                {
                    "incomingWeights": [-0.164850, 0.341606, 0.235054, -0.433242, -0.492880, -0.172919, -0.376472, 0.085386, 0.144339, -0.303647, -0.459437, -0.094658, 0.089173, 0.026512, 0.301310, -0.094229, 0.012537, -0.043769, 0.077342, 0.046340, 0.140864, -0.070373, 0.077749, -0.075162, 0.057551, 0.054694, 0.364372, -0.063822, 0.347626, -0.176268, 0.039004, -0.250562, 0.047528, -0.090396, 0.000064, 0.242129, 0.083811, -0.373218, -0.289305, 0.223926, -0.050067, 0.160524, 0.179498, -0.160907, 0.013925, -0.215196, -0.030083, -0.098953, 0.137945, -0.302828, 0.247650, -0.066146, 0.011220, 0.214406, -0.131814, -0.321980, 0.090738, -0.296081, -0.265027, -0.181071, -0.122335, -0.180032, 0.058043, 0.059341],
                    "bias": -0.214527
                },
                {
                    "incomingWeights": [0.214863, 0.178337, 0.081702, 0.034181, 0.126354, -0.052600, -0.429545, 0.185944, 0.045173, -0.009121, -0.245703, 0.010342, 0.060454, 0.220064, 0.060791, -0.144244, 0.131804, -0.070786, -0.451005, 0.090880, -0.041823, -0.246899, 0.288080, 0.060592, 0.251066, -0.041736, -0.121854, -0.000540, -0.208722, 0.087665, 0.068835, -0.065089, -0.016658, 0.114931, 0.213935, 0.290718, 0.037339, -0.183243, -0.175823, -0.124754, 0.011917, 0.067757, -0.273000, 0.069457, 0.002839, -0.055792, -0.269960, -0.043634, 0.175144, 0.182480, -0.172952, -0.103542, 0.154958, -0.104859, -0.135079, -0.308837, -0.031796, -0.039124, -0.090328, 0.021816, -0.130155, 0.206580, 0.174354, 0.182053],
                    "bias": -0.046959
                },
                {
                    "incomingWeights": [-0.240200, -0.252052, -0.192119, -0.028009, 0.127291, 0.139315, -0.125415, -0.240998, -0.234103, 0.359202, -0.215415, -0.240141, 0.241851, -0.027072, 0.053019, -0.077036, -0.035962, -0.220672, 0.179942, -0.193644, 0.280731, -0.249517, 0.087462, -0.177088, 0.016371, 0.021471, -0.344394, -0.266448, -0.207074, 0.095411, 0.244767, 0.088081, -0.064055, 0.278432, -0.114981, -0.112679, -0.312885, -0.006170, -0.029739, -0.061369, -0.092247, 0.090675, -0.098434, 0.427188, -0.084263, 0.136082, 0.063557, 0.190271, -0.270465, 0.173361, -0.080615, -0.173194, -0.037542, -1.126643, -0.069838, -0.075219, 0.270278, -0.097119, 0.173747, -0.259662, -0.026120, 0.026556, -0.280771, 0.034868],
                    "bias": 0.323483
                },
                {
                    "incomingWeights": [-0.247561, 0.107751, 0.266167, -0.120324, -0.039214, -0.138147, -0.101232, 0.127991, -0.101030, -0.290540, 0.039715, -0.234660, 0.254774, 0.103432, 0.198285, 0.235387, 0.219835, -0.151946, 0.018557, -0.073719, -0.024134, -0.077321, 0.019690, -0.063205, 0.194383, 0.061193, -0.008970, 0.047156, 0.299783, -0.234681, 0.082951, 0.025276, -0.027599, -0.142067, 0.027449, -0.229997, -0.245421, 0.042326, 0.115420, -0.161124, 0.167203, 0.385462, -0.043924, 0.008446, 0.160658, 0.177187, -0.018129, -0.072883, -0.149983, -0.070424, 0.019546, -0.111080, -0.198759, 0.106927, 0.227545, -0.193049, 0.259494, -0.197258, 0.022560, -0.095004, -0.299513, -0.039503, 0.103698, 0.193859],
                    "bias": -0.233734
                },
                {
                    "incomingWeights": [0.153649, 0.236795, 0.231461, 0.048202, 0.140743, 0.107949, 0.023572, -0.174591, -0.130978, 0.185106, 0.181251, -0.326794, 0.006731, -0.042946, -0.217775, 0.055329, 0.274740, 0.237697, -0.029655, 0.238942, -0.090984, 0.187799, 0.341072, -0.020379, 0.243569, 0.262649, 0.141487, 0.104634, 0.005292, 0.103913, 0.062066, 0.115256, -0.199948, 0.296031, 0.305257, -0.191539, 0.131092, -0.102433, 0.064616, 0.082248, -0.234687, -0.101051, -0.067028, -0.161144, 0.017547, 0.149006, 0.203897, 0.039015, -0.003978, 0.225514, 0.191267, -0.010957, -0.140730, -0.063419, -0.261858, -0.069458, 0.049759, 0.177890, -0.086048, -0.042788, -0.194848, 0.085710, -0.014894, 0.058384],
                    "bias": -0.018561
                },
                {
                    "incomingWeights": [-0.012261, -0.077858, 0.218615, 0.204911, 0.019849, 0.105455, 0.087371, 0.279040, -0.007709, -0.191808, -0.250141, 0.068409, -0.134712, 0.031247, -0.279698, 0.162675, 0.171166, 0.182031, -0.007864, -0.144171, 0.119854, 0.237318, 0.126415, -0.189465, 0.235945, 0.046007, -0.167047, -0.216339, 0.281651, 0.198347, 0.271429, 0.208186, -0.222818, 0.028087, 0.136882, -0.207318, -0.041554, -0.112210, 0.133089, -0.119414, 0.027808, 0.479879, -0.023962, 0.173312, -0.053258, 0.216006, -0.138270, 0.148881, -0.057994, 0.142038, -0.191094, 0.131415, 0.191120, -0.105683, -0.108564, -0.188233, -0.089314, -0.091773, 0.115377, -0.319958, -0.240517, -0.024773, -0.083626, -0.311889],
                    "bias": -0.298561
                },
                {
                    "incomingWeights": [-0.271855, -0.185016, -0.239327, 0.038010, 0.032134, 0.004311, 0.131780, -0.237322, -0.100651, -0.160363, 0.142798, 0.147572, -0.231436, -0.105695, 0.035903, 0.018753, 0.268490, -0.182217, -0.120672, -0.204372, -0.148172, -0.172999, -0.124901, 0.324468, -0.125190, 0.084090, 0.401256, 0.043819, -0.061939, 0.027732, 0.032633, 0.078293, 0.265699, -0.065260, -0.038886, -0.003425, -0.156415, 0.147117, -0.062916, 0.243196, -0.086008, 0.176255, 0.176972, 0.070536, -0.057710, -0.126571, -0.290935, -0.072792, 0.073800, -0.044003, -0.187980, -0.313470, 0.059363, 0.121532, 0.161964, -0.186667, -0.229586, -0.103279, -0.032642, -0.308270, 0.031662, 0.284869, 0.032723, -0.164699],
                    "bias": 0.040168
                },
                {
                    "incomingWeights": [-0.068099, -0.120875, 0.303528, -0.187735, 0.296386, 0.096745, 0.054229, 0.235045, 0.252901, 0.044038, 0.111819, -0.095653, 0.151039, 0.118177, 0.145848, 0.062689, -0.156050, 0.056528, -0.013157, 0.071299, -0.087358, 0.030166, 0.106272, -0.078936, -0.194188, 0.148375, -0.290150, 0.167653, 0.027186, -0.131364, 0.082070, -0.130057, 0.109049, 0.126367, 0.149732, 0.034449, -0.389161, -0.136120, 0.022029, 0.177650, -0.119062, -0.110488, -0.018848, -0.033787, 0.036553, -0.487618, 0.017335, 0.020260, -0.072137, -0.356219, -0.053284, 0.054315, 0.079250, -0.152755, -0.546861, -0.032652, -0.296243, 0.029000, -0.121967, 0.208848, -0.026892, -0.057658, -0.039153, -0.117046],
                    "bias": -0.257654
                },
                {
                    "incomingWeights": [0.009102, -0.103701, -0.265007, -0.147491, 0.043237, -0.215279, -0.239821, 0.099744, -0.020622, 0.012266, -0.416659, -0.249570, -0.019370, 0.071284, -0.260199, 0.120578, -0.372451, -0.149931, 0.194388, -0.072513, 0.077717, 0.009169, -0.204126, -0.234415, -0.208513, 0.024640, -0.146493, 0.157171, 0.046781, -0.355597, 0.375647, -0.077364, -0.440613, -0.269280, 0.223179, 0.153369, -0.412692, 0.123399, -0.256020, 0.170557, -0.127762, -0.122002, 0.319415, -0.062084, 0.033441, -0.031567, 0.061202, -0.258577, -0.380680, -0.235000, 0.189239, 0.044099, 0.245648, -0.172481, -0.208147, 0.042781, -0.118243, -0.131072, 0.052512, 0.310679, 0.121120, 0.020764, -0.072466, 0.018185],
                    "bias": 0.020332
                },
                {
                    "incomingWeights": [-0.051001, -0.117863, -0.216161, -0.173595, -0.063917, 0.115969, 0.076425, 0.187034, -0.009090, 0.057600, 0.304739, 0.061738, -0.108488, 0.207116, 0.294260, -0.188066, -0.227018, -0.044139, -0.148783, -0.501294, 0.013568, 0.329936, 0.031287, -0.096323, -0.188500, 0.001487, -0.177053, 0.121104, -0.467923, 0.141286, 0.100502, -0.091507, 0.077066, 0.120808, -0.110564, 0.132476, -0.006449, -0.109741, 0.222668, -0.315252, -0.036444, -0.024285, 0.051045, 0.052449, 0.037034, 0.072585, -0.003204, -0.233431, 0.041232, -0.127351, -0.028534, 0.228007, 0.331779, 0.292903, -0.104681, 0.282821, -0.246730, 0.125786, -0.396189, 0.151873, -0.226260, -0.551874, 0.364861, -0.296444],
                    "bias": 0.256304
                },
                {
                    "incomingWeights": [0.130744, -0.019441, -0.289387, -0.154935, -0.012207, 0.033728, -0.113346, 0.245246, 0.192017, 0.040083, -0.212850, -0.268826, -0.014371, 0.025907, 0.235937, 0.074329, -0.197952, -0.153471, 0.234983, -0.063547, -0.452711, 0.012409, 0.183539, -0.031537, -0.088075, 0.161318, -0.301129, -0.094862, 0.267648, 0.211704, -0.139601, -0.375333, -0.192752, -0.407432, 0.376905, 0.132424, 0.208340, 0.195823, 0.145885, 0.052982, -0.259670, 0.120698, -0.124881, -0.015555, 0.347173, 0.047701, -0.165511, -0.002253, -0.115321, 0.126324, -0.136623, -0.189999, 0.121136, 0.046290, -0.106521, -0.350493, 0.107236, -0.060319, 0.050809, -0.190025, 0.106865, -0.204409, -0.292874, -0.241772],
                    "bias": 0.057795
                },
                {
                    "incomingWeights": [0.214141, -0.046757, 0.138473, 0.307803, 0.088511, 0.322007, -0.029208, 0.342058, -0.033737, 0.276786, -0.030262, -0.209052, 0.225114, -0.179331, 0.015727, -0.046571, -0.140789, -0.183441, 0.289960, -0.130957, 0.019868, 0.332476, 0.227425, 0.119368, 0.341650, -0.139053, -0.078070, -0.043258, 0.292117, -0.029329, 0.082477, -0.163914, -0.273670, -0.284157, 0.285482, -0.002381, 0.009842, -0.038778, -0.064943, -0.193761, 0.029581, 0.007898, -0.038517, -0.155961, -0.067248, -0.292527, 0.020424, -0.150043, -0.034996, 0.224352, -0.157663, -0.041295, 0.096246, 0.255370, -0.189310, -0.171037, 0.212479, 0.159763, 0.088033, 0.230268, 0.120071, -0.314851, -0.163869, 0.122373],
                    "bias": 0.249625
                },
                {
                    "incomingWeights": [-0.083926, -0.055312, 0.215121, -0.294581, -0.405089, -0.092235, -0.218509, -0.124314, -0.187436, 0.098022, 0.068151, -0.335841, 0.105618, 0.093579, 0.201735, 0.136314, 0.315202, 0.321008, 0.011348, 0.051464, 0.244245, -0.011688, 0.019887, -0.122996, -0.075804, -0.186761, -0.192858, 0.316029, 0.169002, 0.112960, -0.081881, 0.149899, -0.357554, -0.068072, -0.119526, -0.130888, 0.282986, 0.112757, 0.233128, 0.093839, 0.186555, 0.466514, 0.092925, 0.019322, -0.067809, 0.123041, -0.326210, -0.311708, -0.038978, -0.126040, 0.288538, 0.108381, 0.161377, 0.104261, -0.206821, -0.091497, -0.094917, 0.318917, -0.223525, -0.007582, -0.283264, 0.370073, -0.042692, 0.262459],
                    "bias": 0.065595
                },
                {
                    "incomingWeights": [-0.137134, 0.099190, 0.009668, 0.012820, -0.047826, 0.270684, -0.005996, 0.146078, -0.090263, 0.079814, -0.068874, -0.262924, -0.551506, -0.202900, 0.219058, 0.367729, -0.062344, 0.164629, 0.358410, 0.105268, -0.193216, 0.236037, 0.203808, 0.091687, -0.079535, -0.157330, -0.185393, -0.116397, -0.507232, -0.248750, -0.018360, 0.014102, -0.101008, -0.097574, -0.101978, 0.036874, -0.188216, 0.020248, 0.053117, 0.112542, -0.299083, -0.101058, 0.366655, -0.039945, 0.064955, 0.164015, 0.259933, 0.240650, -0.179563, -0.083462, 0.282009, -0.477523, -0.027134, 0.118788, 0.134529, -0.094685, -0.226508, -0.317905, -0.192702, 0.104512, 0.024444, -0.454666, 0.064722, -0.035900],
                    "bias": -0.003916
                },
                {
                    "incomingWeights": [-0.160223, -0.082021, -0.289409, -0.287285, -0.103468, 0.069534, -0.085144, 0.327307, 0.247261, 0.069413, -0.466827, -0.238206, 0.303274, 0.335605, 0.354669, -0.285558, 0.236344, 0.274567, 0.188819, -0.022946, -0.080248, -0.355315, -0.286433, -0.115551, 0.127365, -0.091294, -0.154021, 0.057123, -0.036631, 0.012401, 0.061627, 0.028502, -0.250247, 0.079766, 0.045047, 0.205452, 0.181223, 0.473306, -0.232954, 0.256684, 0.307187, 0.203212, 0.338842, -0.192174, -0.246523, 0.282104, -0.522223, 0.048650, -0.060826, -0.055500, 0.194360, -0.006106, 0.201349, -0.009666, -0.324969, 0.055831, -0.231553, 0.181157, -0.245308, 0.215562, -0.160820, 0.066356, -0.053252, -0.159326],
                    "bias": 0.201554
                },
                {
                    "incomingWeights": [0.083238, -0.081458, 0.108493, -0.241271, -0.060026, 0.160252, -0.081719, 0.119443, -0.146849, -0.187438, 0.263649, 0.099672, -0.241306, 0.215945, 0.108910, -0.161724, 0.283784, -0.151908, -0.062130, 0.233338, -0.139134, -0.228238, 0.071611, 0.129444, -0.240211, -0.079182, 0.119185, -0.014163, 0.012365, -0.044185, -0.136508, 0.036765, 0.108141, -0.337156, 0.234512, 0.234718, -0.207755, 0.014736, -0.219382, 0.323357, 0.271282, -0.206879, 0.000014, 0.034192, 0.117479, -0.166089, 0.065500, -0.249371, -0.150182, -0.130491, -0.044496, -0.003555, 0.062755, -0.073434, 0.313081, 0.196984, 0.138983, 0.210070, 0.151905, -0.163078, 0.006556, -0.285902, -0.315128, 0.057959],
                    "bias": -0.033469
                }
            ]
        },
        {
            "neuronCount": 3,
            "neurons": [
                {
                    "incomingWeights": [-0.651729, -1.092861, -0.352418, 0.108855, 0.284800, 0.169902, 0.227640, -0.029781, -0.149995, 0.199664, -0.496668, 0.074478, 0.233868, -0.086447, 0.268931, 0.202647, 0.215777, -0.272235, 0.293568, -0.316260, -0.468562, -0.205391, -0.042311, 0.027967, -0.058653, 0.282577, -0.312706, 0.219426, -0.274633, 0.285964, -0.324158, -0.399856, -0.311794, -0.209954, 0.098637, 0.067107, 0.199588, 0.054363, -0.395716, -0.393388, 0.169310, -0.132344, -0.235613, -0.189848, 0.061258, 0.110129, 0.193815, -0.198282, -0.289974, 0.006090, -0.413590, 0.105660, -0.131853, -0.072232, -0.053902, -0.055407, -0.403113, 0.159734, -0.259721, 0.256517, 0.248541, 0.139148, -0.287683, -0.167260],
                    "bias": -0.126752
                },
                {
                    "incomingWeights": [-0.761890, -0.949345, -0.395785, 0.055931, 0.175742, 0.193165, 0.195419, -0.214338, 0.234776, 0.197358, -0.503605, -0.033265, 0.206296, -0.065289, 0.235050, 0.216503, -0.048788, -0.299838, 0.209974, -0.269742, -0.464211, -0.247875, 0.161063, 0.122538, -0.166351, 0.331814, -0.357066, 0.005955, -0.253708, 0.269335, -0.284983, -0.466007, -0.341714, 0.004653, 0.115168, 0.182233, 0.206712, -0.191618, -0.437502, -0.357245, 0.215534, -0.264854, -0.250894, -0.280816, 0.230923, 0.209646, 0.141747, -0.193389, -0.251051, -0.188068, -0.483190, 0.180058, 0.105349, 0.022006, 0.129049, 0.068825, -0.468258, 0.095134, -0.271581, 0.096842, 0.234282, 0.087092, -0.341844, -0.169093],
                    "bias": 0.228352
                },
                {
                    "incomingWeights": [-0.892705, -1.014585, -0.377238, 0.009183, 0.353475, 0.085397, 0.205467, -0.378295, -0.065637, 0.288424, -0.459564, -0.033448, 0.207922, 0.233368, 0.225339, 0.113328, 0.247490, -0.252083, 0.271664, -0.351989, -0.611798, -0.236899, 0.227704, -0.073898, 0.062084, 0.293819, -0.349153, -0.133666, -0.281742, 0.274996, -0.351396, -0.401925, -0.345779, -0.157555, 0.143984, 0.044480, 0.234962, 0.051950, -0.375470, -0.402298, 0.217959, -0.191226, -0.324318, -0.094461, -0.040814, 0.150537, 0.224568, -0.223949, -0.249610, -0.089616, -0.481142, 0.092692, 0.031522, 0.017853, -0.115313, -0.164229, -0.530417, 0.136602, -0.274783, 0.285228, 0.250910, 0.130776, -0.257818, -0.020476],
                    "bias": -0.237348
                }
            ]
        }
    ]
}
